tree
version=v4
num_class=1
num_tree_per_iteration=1
label_index=0
max_feature_idx=94
objective=regression
feature_names=Column_0 Column_1 Column_2 Column_3 Column_4 Column_5 Column_6 Column_7 Column_8 Column_9 Column_10 Column_11 Column_12 Column_13 Column_14 Column_15 Column_16 Column_17 Column_18 Column_19 Column_20 Column_21 Column_22 Column_23 Column_24 Column_25 Column_26 Column_27 Column_28 Column_29 Column_30 Column_31 Column_32 Column_33 Column_34 Column_35 Column_36 Column_37 Column_38 Column_39 Column_40 Column_41 Column_42 Column_43 Column_44 Column_45 Column_46 Column_47 Column_48 Column_49 Column_50 Column_51 Column_52 Column_53 Column_54 Column_55 Column_56 Column_57 Column_58 Column_59 Column_60 Column_61 Column_62 Column_63 Column_64 Column_65 Column_66 Column_67 Column_68 Column_69 Column_70 Column_71 Column_72 Column_73 Column_74 Column_75 Column_76 Column_77 Column_78 Column_79 Column_80 Column_81 Column_82 Column_83 Column_84 Column_85 Column_86 Column_87 Column_88 Column_89 Column_90 Column_91 Column_92 Column_93 Column_94
feature_infos=[1127.99:2063.5639999999999] [88.566999999999993:103.26000000000001] [88.617999999999995:103.25] [89.004000000000005:103.81999999999999] [88.253:103.03] [0.050000000000000003:2.4199999999999999] [0.25:2.5] [0.10000000000000001:8.5] [16.315469262862088:93.232327822106583] [-36.312212337273195:55.213040409559198] [-28.632834231009941:49.488495344166182] [-20.185331476715699:16.004931414465709] [10.745530627814643:68.895416457888857] [-326.43533527884176:345.50077176675819] [-12.436421305292022:10.55462641919911] [1132.8699999999994:2017.8160000000032] [1138.915499999996:1985.3134499999971] [1135.5303220507899:2014.0280747263068] [1144.2575906378061:1972.8532866573159] [1160.3475999999996:1961.0861799999984] [1170.7554998190269:1934.8176481726421] [1187.944599999998:1931.7822599999988] [1154.1779500000021:1896.8996200000056] [1202.2401956378226:1897.3047290171521] [1180.7821592489281:1859.0636834081977] [-1.3618752132546268:3.283113577252728] [1127.99:2063.5639999999999] [1127.99:2063.5639999999999] [1127.99:2063.5639999999999] [1127.99:2063.5639999999999] [0:2] [0:2] [1:2] [1:2] [-0.057216757223859799:0.046851120733571103] [-0.072457335504076098:0.082418095682925102] [-0.098587457614203497:0.10762118430892639] [-0.1029377924369103:0.14974913569516279] [19.329999923706051:127.98000335693359] [-37.630001068115234:123.6999969482422] [88.589996337890625:103.29000091552734] [1127.800048828125:2051.5] [107.33999633789062:193.88999938964844] [11.734999656677246:29.398000717163089] [2000.5400390625:4796.56005859375] [0.49900001287460322:3.2339999675750728] [9.1400003433227539:82.69000244140625] [0.52000000000000002:3.2400000000000002] [0.089999999999999997:2.98] [0.5:2.9500000000000002] [106.4877:126.1262] [2000.54:4796.5600000000004] [9.1400000000000006:82.689999999999998] [-36.979999999999997:123.64] [9.1199999999999992:133.18000000000001] [-0.049787261049700771:0.059476675923340716] [-0.051069383720258016:0.057775084253924261] [-158.800048828125:181.5999755859375] [-195.9000244140625:164.199951171875] [-168.4000244140625:252.199951171875] [1131.2857317243304:2019.7856968470981] [1147.4200195312501:1965.0599853515623] [1182.4411173502604:1932.821107313368] [1144.1367191555819:1961.2869903998987] [1171.0615637902886:1932.552191773166] [1181.3759295867744:1858.444875628446] [0.91941840952694676:1.093517721330787] [0.93308778159350692:1.1030805070718122] [0.0012696350093375679:0.030542663045697846] [0.0027650262655487044:0.023942638570898372] [0:0.083495523226014612] [0.87412475484597962:100] [1176.3096386594245:2078.4913832860866] [1107.8351577807302:1910.4740752661651] [-0.60048256347355489:1.396405634085879] [7.3557142857142548:79.303710797991045] [-11.69901608922439:11.050538291539791] [2.441406240905053e-05:109.800048828125] [-45.869951171875073:62.049999999999955] [-7.8999755859374545:55.417999999999893] [1127.800048828125:2051.5] [-0.049787261049700771:0.059476675923340716] [1127.800048828125:2051.5] [-0.049787261049700771:0.059476675923340716] [1127.800048828125:2051.5] [-0.049787261049700771:0.059476675923340716] [1127.800048828125:2051.5] [-0.049787261049700771:0.059476675923340716] [1127.800048828125:2051.5] [-0.049787261049700771:0.059476675923340716] [0:1] [1:13] [-0.049999999999999822:1.5899999999999999] [-0.021732487382803423:0.063756986469887256] [0.0079435451626675892:0.015798581226218824]
tree_sizes=1601 1620 1869 1877 1771 1942 1941 1869 2103 1952 2109 1946 2114 2109 2098 1954 2116 2271 2102 2102 2027 2023 2187 1929 2111 2024 2271 2107 1952 2113 2021 2108 2197 1946 2264 2186 2272 2272 2349 2203 2118 2305 2286 2451 2128 2463 2458 2467 2474 2458 2454 2450 2388 2706 2895 2728 2641 3060 3143 2817 3052 3223 3303 3587 3241 3800 3960 3824 4234 4490 4325 4707 4964 4808 4809 5410 5414 5364 5402 5414 5399 5398 5404 5402 5429 5426 5414 5384 5412 5432 5460 5420 5408 5434 5479 5450 5486 5461 5477 5479 5449 5481 5471 5484 5515 5485 5460 5523 5514 5485 5511 5529 5509 5478 5508 5541 5481 5521 5535 5548 5511 5515 5492 5543 5541 5493 5500 5542 5549 5540 5555 5535 5542 5553 5576 5546 5587 5567 5538 5606 5578 5565 5575 5583 5589 5571 5562 5574 5603 5562 5583 5572

Tree=0
num_leaves=18
num_cat=0
split_feature=26 26 26 26 26 26 26 26 26 26 26 26 5 26 26 26 26
split_gain=1.25934e+08 7.58076e+06 4.66613e+06 1.84408e+06 1.4056e+06 892695 316476 215964 201769 122419 87639.5 34049 31799.8 18352.6 8850.64 4715.18 372.853
threshold=1552.1540000000002 1385.6025000000002 1791.9400000000003 1263.1500000000003 1676.6675000000002 1869.3875000000003 1305.5750000000003 1466.0715000000002 1220.4250000000004 1738.2110000000002 1613.2975000000004 1498.7040000000004 2.3250000000000006 1332.2750000000003 1517.9885000000002 1487.8515000000004 1506.1200000000001
decision_type=2 2 2 2 2 2 2 2 2 2 2 2 2 2 2 2 2
left_child=1 3 4 8 10 -4 -5 12 -1 -6 -2 15 -3 -8 16 -9 -13
right_child=2 7 5 6 9 -7 13 11 -10 -11 -12 14 -14 -15 -16 -17 -18
leaf_value=1474.2869886551639 1493.1135191779997 1487.6300628144118 1505.7668559754111 1478.8155134080764 1500.3811476699727 1510.5455930819205 1480.6209242489967 1488.3947456217891 1476.7584292548315 1503.0744847758328 1496.7105048796507 1489.7145669340939 1485.3459621027255 1481.8169378791358 1491.0604196180332 1489.2306877862529 1490.0693615096459
leaf_weight=190 52 27 237 369 106 216 189 34 269 167 29 24 41 128 27 32 25
leaf_count=190 52 27 237 369 106 216 189 34 269 167 29 24 41 128 27 32 25
internal_value=1489.09 1479.78 1504.71 1478.18 1500.36 1508.09 1479.85 1488.51 1475.71 1502.07 1494.48 1489.63 1486.22 1481.08 1490.34 1488.8 1489.91
internal_weight=2162 1355 807 1145 354 453 686 210 459 273 81 142 68 317 76 66 49
internal_count=2162 1355 807 1145 354 453 686 210 459 273 81 142 68 317 76 66 49
is_linear=0
shrinkage=1


Tree=1
num_leaves=18
num_cat=0
split_feature=26 26 26 26 26 26 26 26 26 26 26 26 5 26 26 26 26
split_gain=1.1372e+08 6.84415e+06 4.21272e+06 1.66602e+06 1.35479e+06 705303 306024 195490 163087 143179 79531.9 30844.1 28744.7 16793.9 8015.22 4268.44 337.533
threshold=1552.1540000000002 1385.6025000000002 1796.8620000000003 1258.4250000000004 1676.6675000000002 1877.9890000000003 1305.5750000000003 1466.0715000000002 1214.9750000000001 1745.133 1613.2975000000004 1498.7040000000004 2.3250000000000006 1335.1000000000001 1517.9885000000002 1487.8515000000004 1506.1200000000001
decision_type=2 2 2 2 2 2 2 2 2 2 2 2 2 2 2 2 2
left_child=1 3 4 8 10 -4 -5 12 -1 -6 -2 15 -3 -8 16 -9 -13
right_child=2 7 5 6 9 -7 13 11 -10 -11 -12 14 -14 -15 -16 -17 -18
leaf_value=-14.199674614800347 3.8274499267002322 -1.3882353551047188 16.206410677635063 -9.807483498878085 10.912513040111911 20.636834303635819 -7.998754331432103 -0.66017342587879724 -11.867169633753161 13.57403481794085 7.2534921493530264 0.59589994792938228 -3.5599819982619518 -6.8268663910457068 1.8767292097636634 0.13517814471866146 0.93358898419600278
leaf_weight=170 52 27 235 387 123 194 206 34 271 174 29 24 41 111 27 32 25
leaf_count=170 52 27 235 387 123 194 206 34 271 174 29 24 41 111 27 32 25
internal_value=0.000454395 -8.84735 14.849 -10.368 10.9474 18.2533 -8.83073 -0.546473 -12.7964 12.5121 5.12762 0.511077 -2.73036 -7.61118 1.19129 -0.278212 0.783516
internal_weight=2162 1355 807 1145 378 429 704 210 441 297 81 142 68 317 76 66 49
internal_count=2162 1355 807 1145 378 429 704 210 441 297 81 142 68 317 76 66 49
is_linear=0
shrinkage=0.05


Tree=2
num_leaves=21
num_cat=0
split_feature=26 26 26 26 26 26 26 26 26 26 26 26 10 26 26 26 26 26 67 26
split_gain=1.02691e+08 6.17912e+06 3.80641e+06 1.5067e+06 1.27515e+06 572920 247464 177084 175956 150060 72173.9 33660.1 17264.5 14279 11687 7258.63 5562.37 2494.19 738.875 305.55
threshold=1552.1540000000002 1385.6025000000002 1801.6000000000001 1265.5250000000003 1676.6675000000002 1890.6090000000002 1310.1500000000003 1462.0515000000003 1222.0000000000002 1752.8390000000002 1613.2975000000004 1498.7040000000004 8.659915369781281 1838.4990000000003 1337.7900000000002 1517.9885000000002 1478.8500000000001 1287.4250000000002 0.99834635183763998 1506.1200000000001
decision_type=2 2 2 2 2 2 2 2 2 2 2 2 2 2 2 2 2 2 2 2
left_child=1 3 4 8 10 13 17 12 -1 -6 -2 16 -3 -4 -8 19 -9 -5 -18 -13
right_child=2 7 5 6 9 -7 14 11 -10 -11 -12 15 -14 -15 -16 -17 18 -19 -20 -21
leaf_value=-13.320464940643312 3.6396881197083673 -1.480906323932466 14.68198501468629 -9.5876191499308092 10.448070274121834 19.961266675544508 -7.4787882501107674 -0.81604826300484801 -11.064180508083767 13.046082357323691 6.9029065933227534 0.56729676513671867 -3.3945605468750006 16.813884378228305 -6.3339281161995826 1.7862440763201033 -0.16490754093442647 -8.5930715776101145 0.25470610664004373 0.88870485819303069
leaf_weight=199 52 20 128 222 131 164 215 34 269 183 29 24 40 120 85 27 20 155 20 25
leaf_count=199 52 20 128 222 131 164 215 34 269 183 29 24 40 120 85 27 20 155 20 25
internal_value=0.000885705 -8.40692 14.111 -9.85178 10.5546 17.4869 -8.31668 -0.519637 -12.05 11.9988 4.878 0.401541 -2.79149 15.777 -7.17655 1.13394 -0.355679 -9.20255 0.0458724 0.745875
internal_weight=2162 1355 807 1145 395 412 677 210 468 314 81 150 60 248 300 76 74 377 40 49
internal_count=2162 1355 807 1145 395 412 677 210 468 314 81 150 60 248 300 76 74 377 40 49
is_linear=0
shrinkage=0.05


Tree=3
num_leaves=21
num_cat=0
split_feature=26 26 26 26 21 26 26 26 26 26 26 26 26 26 26 12 26 26 26 42
split_gain=9.27431e+07 5.57905e+06 3.44291e+06 1.36134e+06 1.02979e+06 667789 250251 160477 137880 97408.7 57855.8 41000.7 36650.2 23316.9 9025.47 5911.65 3350.5 1021.47 497.709 36.0684
threshold=1552.1540000000002 1385.6025000000002 1791.9400000000003 1258.4250000000004 1579.3436399999994 1866.2060000000004 1299.6500000000003 1459.4120000000003 1210.7250000000001 1738.2110000000002 1613.2975000000004 1916.7875000000001 1493.2740000000001 1330.8900000000001 1517.9885000000002 37.224176731281098 1478.8500000000001 1504.5240000000001 1571.6740000000002 138.34999847412112
decision_type=2 2 2 2 2 2 2 2 2 2 2 2 2 2 2 2 2 2 2 2
left_child=1 3 4 8 10 -4 -5 15 -1 -6 18 -7 16 -8 17 -3 19 -14 -2 -9
right_child=2 7 5 6 9 11 13 12 -10 -11 -12 -13 14 -15 -16 -17 -18 -19 -20 -21
leaf_value=-12.975306663260554 2.9407613399110994 -2.0052537064325242 14.241882404806294 -8.9488283528011845 9.6452374477561467 16.955769402455477 -7.3896158874089828 -0.97212851784446019 -10.7836663661591 12.000446035294306 6.4637836429050992 19.751245989933196 0.38670364134239432 -6.2616724468147673 1.700121624810355 -3.3417056551846596 -0.11269864170551301 0.80453899313421806 3.9261281250000004 -0.70008867957375265
leaf_weight=150 28 20 230 352 108 117 216 21 291 167 27 106 32 136 27 32 24 33 24 21
leaf_count=150 28 20 230 352 108 117 216 21 291 167 27 106 32 136 27 32 24 33 24 21
internal_value=0.00146001 -7.98874 13.4108 -9.36165 9.66717 16.3085 -7.97212 -0.494213 -11.5568 11.1138 4.55539 18.3668 0.302564 -6.97281 0.943322 -2.87531 -0.591287 0.607887 3.46114 -0.855669
internal_weight=2162 1355 807 1145 354 453 704 210 441 275 79 223 158 352 92 52 66 65 52 42
internal_count=2162 1355 807 1145 354 453 704 210 441 275 79 223 158 352 92 52 66 65 52 42
is_linear=0
shrinkage=0.05


Tree=4
num_leaves=20
num_cat=0
split_feature=26 26 26 26 26 26 26 26 26 26 26 26 12 26 26 26 26 26 26
split_gain=8.37598e+07 5.0363e+06 3.12346e+06 1.23404e+06 1.13994e+06 344393 192329 167197 165202 145628 58808.1 22895.4 21575 14754.6 7783.33 5933.63 3184.04 459.771 253.553
threshold=1552.1540000000002 1385.6025000000002 1809.0830000000003 1269.6350000000002 1676.6675000000002 1897.3300000000002 1226.5850000000003 1756.3320000000001 1312.9200000000003 1466.0715000000002 1613.2975000000004 1498.7040000000004 32.380412465311004 1188.2 1345.5500000000002 1517.9885000000002 1487.8515000000004 1571.6740000000002 1506.1200000000001
decision_type=2 2 2 2 2 2 2 2 2 2 2 2 2 2 2 2 2 2 2
left_child=1 3 4 6 10 -4 13 -6 -5 12 17 16 -3 -1 -10 18 -11 -2 -13
right_child=2 9 5 8 7 -7 -8 -9 14 11 -12 15 -14 -15 -16 -17 -18 -19 -20
leaf_value=-13.36133832964981 2.7987935862047921 -1.193207322529384 14.605430026901104 -8.1546016614190471 9.4965082408360075 18.117235634719272 -9.7166361255714122 12.013497537735406 -6.6191977266352229 -0.56769951398032059 6.2409428507486986 0.51481937866210936 -3.0740242622012186 -11.338500868655043 -5.4158074831495098 1.6181514167785644 0.11916879432671 3.7376741226196288 0.80729892052136931
leaf_weight=56 28 27 213 347 139 157 278 217 234 34 29 24 41 180 50 27 32 24 25
leaf_count=56 28 27 213 347 139 157 278 217 234 34 29 24 41 180 50 27 32 24 25
internal_value=0.00220358 -7.59117 12.7455 -8.89559 9.84089 16.1404 -10.7278 11.0601 -7.3885 -0.470508 4.41275 0.442249 -2.35542 -11.8729 -6.4271 1.02829 -0.23779 3.29456 0.677305
internal_weight=2162 1355 807 1145 437 370 514 356 631 210 81 142 68 236 284 76 66 52 49
internal_count=2162 1355 807 1145 437 370 514 356 631 210 81 142 68 236 284 76 66 52 49
is_linear=0
shrinkage=0.05


Tree=5
num_leaves=22
num_cat=0
split_feature=0 0 0 42 21 41 0 42 0 0 0 0 5 41 42 5 41 41 34 84 27
split_gain=7.56039e+07 4.59048e+06 2.77363e+06 1.11783e+06 1.05958e+06 260810 195704 175145 130694 117733 38221 22622.7 14301 8713.34 5551.89 3059.3 2646.84 2438.83 698 285.695 267.978
threshold=1552.1540000000002 1385.6025000000002 1813.1220000000001 119.8400001525879 1579.3436399999994 1886.0999755859377 1309.7400000000002 164.6549987792969 1462.0515000000003 1209.7270000000001 1587.0310000000002 1496.9800000000002 2.3250000000000006 1332.100036621094 143.41999816894534 1.8250000000000004 1285.6499633789065 1238.7000122070315 -1.0000000180025095e-35 1498.049987792969 1571.6740000000002
decision_type=2 2 2 2 2 2 2 2 2 2 2 2 2 2 2 2 2 2 2 2 2
left_child=1 3 4 9 10 -4 16 -6 12 -1 20 15 -3 -8 18 -10 -5 -11 -13 -20 -2
right_child=2 8 5 6 7 -7 13 -9 11 17 -12 14 -14 -15 -16 -17 -18 -19 19 -21 -22
leaf_value=-11.78605830985056 2.5326472557067876 -1.1803332928248815 13.843311981201172 -8.2918075644376597 9.1039936908397809 17.006184527657251 -6.4965737399649122 11.565627269659343 -0.61920492842793462 -10.264817778782817 5.4055022081647603 0.38296072680325738 -2.9037472264359643 -5.5887457081422971 1.57903627038002 0.056600754279643298 -7.4492421384291223 -9.1186956413424749 0.58018237727028987 0.92959216919812282 3.4500108591715497
leaf_weight=141 24 20 179 220 152 175 187 222 35 160 34 20 40 117 23 31 175 146 20 21 20
leaf_count=141 24 20 179 220 152 175 187 222 35 160 34 20 40 117 23 31 175 146 20 21 20
internal_value=0.00233911 -7.20476 12.1213 -8.4491 9.48571 15.4504 -7.17771 10.5921 -0.406312 -10.4168 4.11353 0.384826 -2.35813 -6.16667 0.924575 -0.305599 -7.93829 -9.74948 0.656242 0.777139 3.01714
internal_weight=2162 1356 806 1146 452 354 699 374 210 447 78 150 60 304 84 66 395 306 61 41 44
internal_count=2162 1356 806 1146 452 354 699 374 210 447 78 150 60 304 84 66 395 306 61 41 44
is_linear=0
shrinkage=0.05


Tree=6
num_leaves=22
num_cat=0
split_feature=26 26 26 26 26 26 26 26 26 26 26 26 26 5 26 26 26 26 26 69 26
split_gain=6.83167e+07 4.10645e+06 2.55711e+06 1.01046e+06 898212 324865 158147 135400 119113 103946 70333.5 30612.8 19074.6 17396.9 16587.9 4937.77 4871.48 4845.21 2651.62 255.139 168.61
threshold=1552.1540000000002 1385.6025000000002 1807.7200000000003 1269.6350000000002 1682.5675000000003 1902.7700000000002 1226.5850000000003 1314.8760000000002 1466.0715000000002 1760.7850000000003 1613.2975000000004 1842.2975000000001 1498.7040000000004 2.3250000000000006 1188.2 1345.5500000000002 1517.9885000000002 1293.2750000000003 1487.8515000000004 0.0066715859161839133 1571.6740000000002
decision_type=2 2 2 2 2 2 2 2 2 2 2 2 2 2 2 2 2 2 2 2 2
left_child=1 3 4 6 10 11 14 17 13 -6 20 -4 18 -3 -1 -9 19 -5 -10 -14 -2
right_child=2 8 5 7 9 -7 -8 15 12 -11 -12 -13 16 -15 -16 -17 -18 -19 -20 -21 -22
leaf_value=-12.127362226519669 2.5395575793036103 -1.0857828657967703 12.151602308190389 -7.6043059404789179 8.7431606744040913 16.790216127929689 -8.774978554018082 -5.9240284969188552 -0.52184614883150371 10.836566234470645 5.9362614460995324 14.132756688124468 0.76022921313410219 -2.7758592587425599 -10.229112236908129 -4.8763307893042471 1.4693375900813512 -6.7125292840576183 0.1050360198550378 0.47648081592151093 3.3650466430664068
leaf_weight=56 28 27 114 242 141 124 278 215 34 193 37 146 22 41 180 50 27 124 32 27 24
leaf_count=56 28 27 114 242 141 124 278 215 34 193 37 146 22 41 180 50 27 124 32 27 24
internal_value=0.00228557 -6.85545 11.5111 -8.03331 8.79055 14.4772 -9.69118 -6.66964 -0.425632 9.98158 4.25957 13.314 0.399858 -2.13033 -10.7288 -5.74544 0.934782 -7.3213 -0.220797 0.616635 2.97695
internal_weight=2162 1355 807 1145 423 384 514 631 210 334 89 260 142 68 236 265 76 366 66 49 52
internal_count=2162 1355 807 1145 423 384 514 631 210 334 89 260 142 68 236 265 76 366 66 49 52
is_linear=0
shrinkage=0.05


Tree=7
num_leaves=21
num_cat=0
split_feature=26 26 26 26 26 26 26 26 26 26 26 26 5 26 26 26 26 43 73 42
split_gain=6.1704e+07 3.98644e+06 2.17085e+06 916571 766126 196797 167856 122402 99351.7 96127.9 85890.2 23022.3 20165.9 17472.4 8921.24 5824.08 1683.43 446.216 148.632 146.228
threshold=1557.5340000000003 1385.6025000000002 1819.7250000000001 1258.4250000000004 1698.6760000000002 1908.7490000000003 1299.6500000000003 1471.3500000000001 1204.3600000000004 1769.6090000000002 1613.2975000000004 1530.8965000000001 2.3250000000000006 1327.6050000000002 1493.2740000000001 1241.4350000000002 1506.1200000000001 17.284500122070316 1447.8511870426335 141.26499938964847
decision_type=2 2 2 2 2 2 2 2 2 2 2 2 2 2 2 2 2 2 2 2
left_child=1 3 4 8 10 -4 -5 12 -1 -6 -2 14 -3 -8 17 -10 19 -9 -18 -16
right_child=2 7 5 6 9 -7 13 11 15 -11 -12 -13 -14 -15 16 -17 18 -19 -20 -21
leaf_value=-10.821188468622969 2.9689132096046631 -0.97168262455198495 13.085008681557396 -7.29372221949418 8.6592880269643437 16.129696077329921 -6.0639962149852558 -0.44372089908236556 -9.2837820434570322 10.606501894553148 6.0932726573944089 2.1047111066182453 -2.6403708212716239 -5.1294965776431019 0.24702649207342242 -8.1837302470207227 0.9681106337633999 -0.11396475583638835 0.65819868694652206 0.46504104001181468
leaf_weight=122 42 35 219 352 147 112 200 20 192 222 55 20 41 152 20 127 21 22 21 20
leaf_count=122 42 35 219 352 147 112 200 20 192 222 55 20 41 152 20 127 21 22 21 20
internal_value=0.00255691 -6.45063 11.049 -7.6341 8.81312 14.1607 -6.49414 -0.284499 -9.43508 9.8563 4.78461 0.572426 -1.89456 -5.67615 0.310383 -8.87279 0.611412 -0.277775 0.832182 0.364839
internal_weight=2162 1365 797 1145 466 331 704 220 441 369 97 144 76 352 124 319 82 42 42 40
internal_count=2162 1365 797 1145 466 331 704 220 441 369 97 144 76 352 124 319 82 42 42 40
is_linear=0
shrinkage=0.05


Tree=8
num_leaves=24
num_cat=0
split_feature=26 26 26 26 26 26 26 26 26 26 26 26 26 26 26 26 42 26 26 26 21 28 26
split_gain=5.5724e+07 3.099e+06 2.2769e+06 830239 652591 521064 141900 100054 87046.4 54600.3 27119.7 22919.1 16448.8 15266.7 6268.36 4694.01 4263.61 2116.25 1243.3 1110.78 423.617 260.165 18.213
threshold=1530.8965000000001 1385.6025000000002 1770.9620000000002 1273.7650000000001 1860.1000000000001 1643.5735000000002 1225.3050000000001 1314.8760000000002 1459.4120000000003 1934.1050000000002 1712.6190000000004 1587.0310000000002 1490.1075000000003 1183.8300000000002 1807.7200000000003 1341.2950000000003 134.06999969482425 1504.5240000000001 1475.7340000000002 1290.7250000000001 1472.1392599999986 1506.1200000000001 1565.6000000000001
decision_type=2 2 2 2 2 2 2 2 2 2 2 2 2 2 2 2 2 2 2 2 2 2 2
left_child=1 3 5 6 14 11 13 19 16 -6 -7 22 18 -1 -4 -9 -3 20 -10 -5 -14 -19 -2
right_child=2 8 4 7 9 10 -8 15 12 -11 -12 -13 17 -15 -16 -17 -18 21 -20 -21 -22 -23 -24
leaf_value=-11.165096686681112 2.0719783427797518 -2.649770764112473 9.9130391175069938 -6.8842263026881874 13.341493851170396 6.5651589505177625 -7.9177044989845973 -5.3678260634495665 -0.72781025123596199 15.911152982969544 8.4086212670462483 4.3256771809714181 0.41316681055795579 -9.2960740585748667 11.193971770003037 -4.4517851509482176 -1.554853197444569 0.58978927294413253 -0.24526253871917728 -6.1573185079375667 0.085788170444457579 0.89525317459106446 2.7191803162186239
leaf_weight=47 28 31 161 184 164 52 307 207 34 73 139 27 20 180 147 58 21 26 24 162 20 24 26
leaf_count=47 28 31 161 184 164 52 307 207 34 73 139 27 20 180 147 58 21 26 24 162 20 24 26
internal_value=0.00268421 -6.25216 10.2949 -7.25444 12.1637 6.51943 -8.705 -5.97451 -0.506546 14.1965 7.94357 3.1053 0.115327 -9.73035 10.5587 -5.18484 -2.24537 0.536249 -0.535761 -6.56262 0.255684 0.751189 2.42746
internal_weight=2162 1345 817 1145 545 272 534 611 200 237 191 81 148 227 308 265 52 90 58 346 40 50 54
internal_count=2162 1345 817 1145 545 272 534 611 200 237 191 81 148 227 308 265 52 90 58 346 40 50 54
is_linear=0
shrinkage=0.05


Tree=9
num_leaves=22
num_cat=0
split_feature=26 26 26 26 26 26 26 26 26 26 26 26 26 26 42 26 26 26 26 67 69
split_gain=5.03331e+07 3.02325e+06 1.89702e+06 753940 554379 383971 147104 88837.3 74625 69467 44496.9 17063.9 16842.5 14775 8710.47 4085.49 3728.91 2740.2 2170.83 549.667 198.678
threshold=1552.1540000000002 1385.6025000000002 1791.9400000000003 1256.1500000000003 1643.5735000000002 1863.1585000000002 1299.6500000000003 1462.0515000000003 1200.6500000000003 1738.2110000000002 1934.1050000000002 1498.7040000000004 1587.0310000000002 1327.6050000000002 134.7799987792969 1235.4050000000002 1517.9885000000002 1478.8500000000001 1282.4600000000003 0.99834635183763998 0.0066715859161839133
decision_type=2 2 2 2 2 2 2 2 2 2 2 2 2 2 2 2 2 2 2 2 2
left_child=1 3 4 8 12 -4 18 14 -1 -6 -7 17 -2 -8 -3 -10 20 -9 -5 -19 -13
right_child=2 7 5 6 9 10 13 11 15 -11 -12 16 -14 -15 -16 -17 -18 19 -20 -21 -22
leaf_value=-9.9514655578020719 2.3884573686387802 -2.4203628616333011 10.423600249290466 -6.9113118020357662 6.9687659134824047 12.711363816080215 -5.4781627689190771 -0.57611612919398714 -8.4976533865928658 8.8304717309134357 15.126345602499473 0.65528507626574972 4.1171177700587682 -4.6254238098742917 -1.0764494644511831 -7.5046235159940515 1.2750445457867214 -0.15260051409403486 -6.179392770328878 0.20923333253534071 0.40725050764424459
leaf_weight=102 44 39 223 212 116 157 200 34 191 167 73 22 27 152 21 128 27 20 160 20 27
leaf_count=102 44 39 223 212 116 157 200 34 191 167 73 22 27 152 21 128 27 20 160 20 27
internal_value=0.00301288 -5.88331 9.88154 -6.89395 7.10321 12.0323 -5.89767 -0.366305 -8.58923 8.09461 13.54 0.286133 3.09396 -5.1241 -1.97543 -8.12391 0.807608 -0.252997 -6.61393 0.0288851 0.529591
internal_weight=2162 1355 807 1145 354 453 724 210 421 283 230 150 71 352 60 319 76 74 372 40 49
internal_count=2162 1355 807 1145 354 453 724 210 421 283 230 150 71 352 60 319 76 74 372 40 49
is_linear=0
shrinkage=0.05


Tree=10
num_leaves=24
num_cat=0
split_feature=26 26 26 41 26 26 26 41 26 26 26 26 26 26 26 26 26 18 26 26 21 28 26
split_gain=4.54636e+07 2.5253e+06 1.86077e+06 682048 533110 421350 128009 71482 70789.2 45230.6 23667.4 18691.7 15688.5 13450.5 8756.98 7013.2 1694.76 1676.82 1347.45 918.376 359.211 224.36 80.2842
threshold=1530.8965000000001 1385.6025000000002 1770.9620000000002 1256.299987792969 1860.1000000000001 1643.5735000000002 1299.6500000000003 1452.7500000000002 1200.6500000000003 1934.1050000000002 1712.6190000000004 1587.0310000000002 1490.1075000000003 1325.2250000000001 1238.1775000000002 1814.2590000000002 1504.5240000000001 1403.3154704662397 1475.7340000000002 1282.4600000000003 1472.1392599999986 1500.8280000000002 1565.6000000000001
decision_type=2 2 2 2 2 2 2 2 2 2 2 2 2 2 2 2 2 2 2 2 2 2 2
left_child=1 3 5 8 15 11 19 17 -1 -6 -7 22 18 -8 -10 -4 20 -3 -9 -5 -14 -18 -2
right_child=2 7 4 6 9 10 13 12 14 -11 -12 -13 16 -15 -16 -17 21 -19 -20 -21 -22 -23 -24
leaf_value=-9.4587229267601849 1.8758437327680921 -2.5157015110896186 9.0661117032305096 -6.5519095510594996 12.051598554206619 5.9012306342934657 -5.2445232533105743 -0.70878214068529077 -8.0795721358482293 14.380248965701544 7.5953767907278893 3.9186138534545898 0.37763289871669953 -4.4392863230119675 -7.0679423153039185 10.2990379017323 0.51219788471857708 -1.655842632380399 -0.22373086445331578 -5.8723422146435853 0.076344684958457948 0.79260278497423453 2.4732570549293804
leaf_weight=102 28 25 198 203 164 52 182 40 197 73 139 27 20 170 131 110 23 21 24 160 20 27 26
leaf_count=102 28 25 198 203 164 52 182 40 197 73 139 27 20 170 131 110 23 21 24 160 20 27 26
internal_value=0.00308726 -5.64664 9.29958 -6.5514 10.989 5.88658 -5.58787 -0.46003 -8.13685 12.8263 7.16731 2.81596 0.0604569 -4.86932 -7.69826 9.53836 0.483892 -2.16685 -0.533205 -6.26935 0.232647 0.676287 2.20332
internal_weight=2162 1345 817 1145 545 272 715 200 430 237 191 81 154 352 328 308 90 46 64 363 40 50 54
internal_count=2162 1345 817 1145 545 272 715 200 430 237 191 81 154 352 328 308 90 46 64 363 40 50 54
is_linear=0
shrinkage=0.05


Tree=11
num_leaves=22
num_cat=0
split_feature=26 26 26 26 26 26 26 26 26 26 26 26 26 26 26 26 26 26 62 73 26
split_gain=4.10655e+07 2.28024e+06 1.68197e+06 604627 438567 414986 135891 87041.7 46397 42235.8 33280.4 16931.6 15271.8 13300.9 2252.95 2249.25 1545.81 1461.48 407.843 137.989 74.0677
threshold=1530.8965000000001 1360.0700000000004 1780.4800000000002 1250.3750000000002 1643.5735000000002 1860.1000000000001 1294.3100000000002 1446.0680000000002 1190.6700000000003 1944.3120000000001 1727.1790000000003 1587.0310000000002 1490.1075000000003 1323.2500000000002 1278.9750000000001 1413.2150000000004 1506.1200000000001 1471.3500000000001 1480.6338806152346 1447.8511870426335 1565.6000000000001
decision_type=2 2 2 2 2 2 2 2 2 2 2 2 2 2 2 2 2 2 2 2 2
left_child=1 3 4 8 11 -4 14 15 -1 -7 -6 20 17 -8 -5 -3 18 -9 -14 -18 -2
right_child=2 7 5 6 10 9 13 12 -10 -11 -12 -13 16 -15 -16 -17 19 -19 -20 -21 -22
leaf_value=-9.3764059083853208 1.7852857826495996 -2.759578617858887 9.1859821998986018 -6.3636146592463696 5.9262649330726038 11.569564174798018 -5.066708167164597 -0.76436350997756508 -7.5731950213322881 14.001980950491768 7.5315618459065767 3.7296808283669614 0.37859406722003019 -4.2963476558261453 -5.7004530554378743 -1.8494996792929517 0.79998619643124669 -0.2866653289454324 0.079779650611536856 0.5296291403336959 2.3541742437857169
leaf_weight=66 28 24 273 226 77 182 193 33 304 55 149 27 28 179 169 27 21 34 20 21 26
leaf_count=66 28 24 273 226 77 182 193 33 304 55 149 27 28 179 169 27 21 34 20 21 26
internal_value=0.00333756 -5.36617 8.83874 -6.24602 5.88237 10.6033 -5.42958 -0.549694 -7.91927 12.1905 7.01316 2.68021 0.0372753 -4.70855 -6.09501 -2.3227 0.460672 -0.529804 0.258359 0.680385 2.09711
internal_weight=2162 1345 817 1137 307 510 767 208 370 237 226 81 157 372 395 51 90 67 48 42 54
internal_count=2162 1345 817 1137 307 510 767 208 370 237 226 81 157 372 395 51 90 67 48 42 54
is_linear=0
shrinkage=0.05


Tree=12
num_leaves=24
num_cat=0
split_feature=26 26 26 41 26 26 26 26 26 26 26 26 26 26 26 26 26 41 26 26 21 28 26
split_gain=3.70891e+07 2.05931e+06 1.51985e+06 558173 466159 315416 104343 60220.1 58828.6 51685.2 15670.7 15337.2 10931.4 9134.3 4458.89 3911.13 3687.17 3274.76 1408.44 820.556 297.646 186.056 68.2927
threshold=1530.8965000000001 1385.6025000000002 1767.8290000000002 1256.299987792969 1848.6650000000002 1643.5735000000002 1303.8500000000001 1204.3600000000004 1459.4120000000003 1916.7875000000001 1707.3300000000002 1587.0310000000002 1490.1075000000003 1337.7900000000002 1235.4050000000002 1282.4600000000003 1801.6000000000001 1419.049987792969 1504.5240000000001 1475.7340000000002 1472.1392599999986 1506.1200000000001 1565.6000000000001
decision_type=2 2 2 2 2 2 2 2 2 2 2 2 2 2 2 2 2 2 2 2 2 2 2
left_child=1 3 5 7 16 11 15 -1 17 -6 -7 22 19 -8 -9 -5 -4 -3 20 -10 -14 -20 -2
right_child=2 8 4 6 9 10 13 14 12 -11 -12 -13 18 -15 -16 -17 -18 -19 21 -21 -22 -23 -24
leaf_value=-8.4242470184574287 1.699099577542009 -2.2092428059731763 7.9214738281250012 -5.9132377732968804 10.587081341552736 5.1843167351616755 -4.5470351286959056 -7.2772018723260805 -0.59132417597089493 12.630066933319949 6.7241384789437966 3.5498568575722835 0.34162209749221806 -3.7361257810370869 -6.4040797752058012 -5.2626353295474138 8.9467970275878912 -1.2740924180072286 0.47972897229371247 -0.19923185228109364 0.067487268987156096 0.73425007228851324 2.2408250992386431
leaf_weight=122 28 30 149 203 149 44 241 167 34 106 131 27 20 85 141 186 157 22 26 24 20 24 26
leaf_count=122 28 30 149 203 149 44 241 167 34 106 131 27 20 85 141 186 157 22 26 24 20 24 26
internal_value=0.00349063 -5.09943 8.40023 -5.91646 9.85998 5.17538 -5.04486 -7.35068 -0.415734 11.4824 6.36867 2.551 0.0954905 -4.34769 -6.89953 -5.61646 8.47498 -1.8452 0.438629 -0.435291 0.209666 0.613999 1.99602
internal_weight=2162 1345 817 1145 561 256 715 430 200 255 175 81 148 326 308 389 306 52 90 58 40 50 54
internal_count=2162 1345 817 1145 561 256 715 430 200 255 175 81 148 326 308 389 306 52 90 58 40 50 54
is_linear=0
shrinkage=0.05


Tree=13
num_leaves=24
num_cat=0
split_feature=26 0 26 26 26 26 26 26 26 26 26 26 26 26 26 10 26 26 26 62 26 36 26
split_gain=3.35005e+07 1.8597e+06 1.37327e+06 506905 388019 303584 121696 51106.5 38450.6 35789.6 21928.8 14695.8 14135 13892.9 9903.05 2463.85 2371.34 1282.24 742.189 338.445 279.929 129.681 62.9325
threshold=1530.8965000000001 1385.6025000000002 1783.5435000000002 1248.8100000000002 1643.5735000000002 1876.5940000000003 1294.3100000000002 1459.4120000000003 1183.8300000000002 1727.1790000000003 1948.0815000000002 1823.3650000000002 1325.2250000000001 1587.0310000000002 1490.1075000000003 13.23856649533254 1278.9750000000001 1506.1200000000001 1475.7340000000002 1480.6338806152346 1346.1850000000002 -0.0059901990143304993 1565.6000000000001
decision_type=2 2 2 2 2 2 2 2 2 2 2 2 2 2 2 2 2 2 2 2 2 2 2
left_child=1 3 4 8 13 11 16 15 -1 -6 -7 -4 -8 22 18 -3 -5 19 -9 -16 -14 -19 -2
right_child=2 7 5 6 9 10 12 14 -10 -11 -12 -13 20 -15 17 -17 -18 21 -20 -21 -22 -23 -24
leaf_value=-8.7966910266876219 1.6170740594535038 -1.3059879360880171 7.9755790352527018 -5.7546765615172317 5.3452848571386093 10.638762458702189 -4.5476522631893799 -0.56260271893228797 -6.9139514254615424 6.9032469456263961 12.825084417724609 9.2276253639779444 -3.9464733382004962 3.3787030056544718 0.34290278722499984 -2.1367344177246097 -5.1484430308622482 0.47123721531459267 -0.18966871764063839 0.070803884225232261 -3.2632339770294898 0.72431867620219359 2.132933603216101
leaf_weight=47 28 27 161 235 77 153 210 34 314 174 49 122 129 27 28 24 169 20 24 20 42 22 26
leaf_count=47 28 27 161 235 77 153 210 34 314 174 49 122 129 27 28 24 169 20 24 20 42 22 26
internal_value=0.00366912 -4.8461 7.98386 -5.62024 5.4778 9.68453 -4.89348 -0.382137 -7.18271 6.44843 11.2297 8.54594 -4.22232 2.42802 0.090997 -1.7306 -5.51443 0.417598 -0.4142 0.233389 -3.79864 0.617682 1.89981
internal_weight=2162 1345 817 1146 332 485 785 199 361 251 202 283 381 81 148 51 404 90 58 48 171 42 54
internal_count=2162 1345 817 1146 332 485 785 199 361 251 202 283 381 81 148 51 404 90 58 48 171 42 54
is_linear=0
shrinkage=0.05


Tree=14
num_leaves=24
num_cat=0
split_feature=42 0 42 41 0 42 41 0 41 0 0 41 27 0 41 0 41 28 27 10 41 42 41
split_gain=3.02391e+07 1.74045e+06 1.19729e+06 458322 404015 225364 83999.8 50519.2 49440.1 36905.1 10323.1 9958.66 9516.66 4517.6 2875.56 2812.42 2730.4 2227.69 1010.71 867.609 539.25 482.289 148.4
threshold=145.63000488281253 1385.6025000000002 164.6549987792969 1256.299987792969 1848.6650000000002 154.31999969482425 1309.299987792969 1204.3600000000004 1452.7500000000002 1925.8800000000003 1496.9800000000002 1710.100036621094 1613.2975000000004 1346.4450000000002 1806.6499633789065 1235.4050000000002 1285.6499633789065 1478.8500000000001 1504.5240000000001 13.23856649533254 1514.1500244140627 147.879997253418 1484.9500122070315
decision_type=2 2 2 2 2 2 2 2 2 2 2 2 2 2 2 2 2 2 2 2 2 2 2
left_child=1 3 5 7 14 12 16 -1 19 -6 17 -7 21 -8 -4 -9 -5 -10 -12 -3 -20 -2 -19
right_child=2 8 4 6 9 11 13 15 10 -11 18 -13 -14 -15 -16 -17 -18 22 20 -21 -22 -23 -24
leaf_value=-7.6207240307815685 1.6227065959121245 -1.3665881078893489 7.2145521822477647 -5.2562844858249704 9.681558039809719 4.6477185752175076 -3.9826558961539433 -6.5600488105187056 -0.55024708686805357 11.526525974483283 0.26716663828988868 5.9763704245431084 3.2820844795590363 -3.1207094453020794 8.1245013302475666 -5.7883965534183153 -4.6967217737833664 -0.12276502446227132 0.47439819238015579 -2.0341711853027347 0.85390974478288129 2.2032674873352054 0.063183341161771253
leaf_weight=122 32 21 189 237 164 43 260 168 40 90 29 118 20 40 133 140 179 20 27 24 21 24 21
leaf_count=122 32 21 189 237 164 43 260 168 40 90 29 118 20 40 133 140 179 20 27 24 21 24 21
internal_value=0.00392703 -4.58563 7.6156 -5.34091 8.84893 4.59354 -4.55208 -6.64077 -0.31656 10.3779 0.102774 5.65242 2.30604 -3.8785 7.61441 -6.22918 -5.02736 -0.289612 0.514028 -1.75922 0.654575 1.90589 -0.0281674
internal_weight=2162 1349 813 1146 576 237 716 430 203 254 158 161 76 300 322 308 416 81 77 45 48 56 41
internal_count=2162 1349 813 1146 576 237 716 430 203 254 158 161 76 300 322 308 416 81 77 45 48 56 41
is_linear=0
shrinkage=0.05


Tree=15
num_leaves=22
num_cat=0
split_feature=26 26 26 26 26 26 26 26 26 41 26 26 26 12 26 26 26 26 26 21 28
split_gain=2.73353e+07 1.51563e+06 1.12394e+06 405191 334874 239835 93669.2 58607.9 43446.3 35056.4 22289.1 10224.8 9792.5 4391.79 2115.02 1553.03 1052.13 966.741 961.95 237.974 157.464
threshold=1530.8965000000001 1360.0700000000004 1769.6090000000002 1248.8100000000002 1848.6650000000002 1627.6740000000002 1294.3100000000002 1446.0680000000002 1931.4145000000003 1181.0000000000002 1707.3300000000002 1490.1075000000003 1323.2500000000002 39.306892300779261 1278.9750000000001 1413.2150000000004 1504.5240000000001 1801.6000000000001 1471.3500000000001 1472.1392599999986 1500.8280000000002
decision_type=2 2 2 2 2 2 2 2 2 2 2 2 2 2 2 2 2 2 2 2 2
left_child=1 3 5 9 17 13 14 15 -6 -1 -7 18 -8 -2 -5 -3 19 -4 -9 -13 -18
right_child=2 7 4 6 8 10 12 11 -10 -11 -12 16 -14 -15 -16 -17 20 -19 -20 -21 -22
leaf_value=-7.9840930144640865 2.6237579631805423 -2.265899906921387 6.8186933243442596 -5.1989604009208037 9.2249301087115452 4.3289006572299531 -4.1383307561186173 -0.62271842653260512 11.156885751724245 -6.2348426427658961 5.8060798258100235 0.29812159657478338 -3.4903736459943988 1.6634883541107179 -4.647248002893785 -1.5142851393563408 0.39641049981117255 7.6806010108658036 -0.23494108727148602 0.053484316297939843 0.62478502860026697
leaf_weight=48 23 24 141 235 176 53 193 33 79 313 139 20 179 49 169 27 23 157 34 20 27
leaf_count=48 23 24 141 235 176 53 193 33 79 313 139 20 179 49 169 27 23 157 34 20 27
internal_value=0.00407381 -4.37677 7.21265 -5.09409 8.49669 4.50102 -4.43772 -0.449982 9.86472 -6.48886 5.42289 0.0316531 -3.83675 2.00205 -4.98023 -1.90486 0.378094 7.29697 -0.432358 0.180213 0.529663
internal_weight=2162 1345 817 1137 553 264 776 208 255 361 192 157 372 72 404 51 90 298 67 40 50
internal_count=2162 1345 817 1137 553 264 776 208 255 361 192 157 372 72 404 51 90 298 67 40 50
is_linear=0
shrinkage=0.05


Tree=16
num_leaves=24
num_cat=0
split_feature=41 41 42 41 41 42 41 41 41 42 27 42 41 42 41 41 41 42 7 34 34 60 9
split_gain=2.46714e+07 1.61834e+06 871320 370802 297562 81098.5 77926.6 58272 34989.4 34105.1 33083.8 12116.7 6496.56 4018.46 3828.52 3633.18 2539.66 2538.75 1887.93 806.156 429.49 204.427 81.6573
threshold=1558.3000488281252 1359.4500122070315 170.43999481201175 1251.8999633789065 1710.100036621094 179.04000091552737 1301.6500244140627 1459.5500488281252 1181.0000000000002 164.6549987792969 1627.6740000000002 141.26499938964847 1326.4500122070315 144.03499603271487 1231.549987792969 1419.049987792969 1276.6500244140627 148.42000579833987 2.0500000000000003 -0.00032933624253324995 0.0026318052139574001 1504.1499895368306 -2.9264087029062007
decision_type=2 2 2 2 2 2 2 2 2 2 2 2 2 2 2 2 2 2 2 2 2 2 2
left_child=1 3 4 8 10 -4 16 15 -1 -6 17 18 -8 19 -10 -3 -5 -2 20 -13 -9 -21 -20
right_child=2 7 5 6 9 -7 12 11 14 -11 -12 13 -14 -15 -16 -17 -18 -19 22 21 -22 -23 -24
leaf_value=-7.5930357391980223 1.5864540396134059 -1.8972104704720636 8.2961789382313178 -4.8980986618768609 5.3975542366604845 10.253910445479661 -3.8360806812487152 -0.079632487750571704 -6.1186229193793409 6.6418278463263265 4.0084158794968214 0.17383687132880804 -3.2457032371367385 1.1947005075878567 -5.3433072004405737 -1.0102854125976561 -4.3856673837591105 2.5139098981710584 -0.48779398520787559 0.41822321676072627 0.23374318699042004 0.70062561580113003 -0.30073217840421773
leaf_weight=48 23 34 220 209 118 110 189 22 224 246 53 20 148 26 108 24 215 25 20 20 20 20 20
leaf_count=48 23 34 220 209 118 110 189 22 224 246 53 20 148 26 108 24 215 25 20 20 20 20 20
internal_value=0.0042018 -4.06821 7.00302 -4.83325 5.5853 8.97778 -4.18423 -0.201468 -6.11858 6.25437 3.13628 0.271753 -3.58719 0.682969 -5.88323 -1.55364 -4.6492 2.11105 -0.162494 0.445187 0.0714432 0.573191 -0.404001
internal_weight=2162 1367 795 1141 465 330 761 226 380 364 101 168 337 86 332 58 424 48 82 60 42 40 40
internal_count=2162 1367 795 1141 465 330 761 226 380 364 101 168 337 86 332 58 424 48 82 60 42 40 40
is_linear=0
shrinkage=0.05


Tree=17
num_leaves=26
num_cat=0
split_feature=26 26 26 41 26 26 26 16 26 41 26 26 26 26 26 26 26 26 26 26 26 22 68 26 26
split_gain=2.23021e+07 1.23529e+06 921647 331650 262349 202146 76815.8 47897.3 30791.8 27039.4 21509.7 9207.48 8848.89 8799.75 7709.63 2738.16 2244.84 962.426 864.237 858.786 833.776 209.923 140.466 118.769 23.0164
threshold=1530.8965000000001 1360.0700000000004 1787.4340000000002 1248.9500122070315 1643.5735000000002 1876.5940000000003 1293.2750000000003 1421.9213499999971 1175.8750000000002 1733.9500122070315 1948.0815000000002 1587.0310000000002 1321.1600000000001 1490.1075000000003 1823.3650000000002 1698.6760000000002 1230.5750000000003 1278.2500000000002 1413.2150000000004 1471.3500000000001 1504.5240000000001 1388.3588800000041 0.0082405918854857371 1345.5500000000002 1565.6000000000001
decision_type=2 2 2 2 2 2 2 2 2 2 2 2 2 2 2 2 2 2 2 2 2 2 2 2 2
left_child=1 3 4 8 11 14 17 18 -1 15 -7 24 -8 19 -4 -6 -10 -5 -3 -9 21 -15 -22 -14 -2
right_child=2 7 5 6 9 10 12 13 16 -11 -12 -13 23 20 -16 -17 -18 -19 -20 -21 22 -23 -24 -25 -26
leaf_value=-7.4423091868865185 1.3261432884479392 -2.048965637969971 6.5182614779781991 -4.7074601759168848 3.7315622699961946 8.6768630604929751 -3.788318152993412 -0.57728324072228543 -5.8698335600978115 5.7436844706985193 10.588374166870118 2.7607391909190593 -3.2885557007208099 0.27493920175802139 7.515274168185103 4.8199995555048405 -5.1412653622260462 -4.2245132397496423 -1.4098059294773984 -0.21628197784083231 0.5530536280908892 0.045499681773639861 0.33825354383105327 -2.7347417458822565 1.744762944115533
leaf_weight=38 28 24 153 224 33 153 176 35 220 158 49 27 163 20 122 68 103 171 25 34 30 20 20 42 26
leaf_count=38 28 24 153 224 33 153 176 35 220 158 49 27 163 20 122 68 103 171 25 34 30 20 20 42 26
internal_value=0.00404299 -3.95298 6.51523 -4.60057 4.5032 7.93695 -4.00677 -0.40789 -5.86239 5.27965 9.19045 1.98631 -3.47502 0.0164384 6.98622 4.50449 -5.6541 -4.5096 -1.75768 -0.405101 0.340574 0.164249 0.475549 -3.18894 1.55585
internal_weight=2162 1345 817 1137 340 477 776 208 361 259 202 81 381 159 275 101 323 395 49 69 90 40 50 205 54
internal_count=2162 1345 817 1137 340 477 776 208 361 259 202 81 381 159 275 101 323 395 49 69 90 40 50 205 54
is_linear=0
shrinkage=0.05


Tree=18
num_leaves=24
num_cat=0
split_feature=26 42 26 26 26 26 26 26 26 26 41 26 26 26 26 41 26 26 26 22 22 40 26
split_gain=2.01469e+07 1.11585e+06 832721 303500 211083 211005 57452.4 37809 37744.9 26517.5 16770.1 8340.34 7554.42 5420.03 5290.98 4045.79 3245.09 754.836 681.779 582.523 190.377 143.414 21.4273
threshold=1530.8965000000001 130.25000000000003 1780.4800000000002 1256.1500000000003 1643.5735000000002 1866.2060000000004 1311.9700000000003 1446.0680000000002 1196.6350000000002 1948.0815000000002 1726.6500244140627 1587.0310000000002 1490.1075000000003 1285.1125000000002 1823.3650000000002 1231.549987792969 1337.3150000000003 1504.5240000000001 1471.3500000000001 1312.2080950000022 1388.3588800000041 98.264999389648452 1565.6000000000001
decision_type=2 2 2 2 2 2 2 2 2 2 2 2 2 2 2 2 2 2 2 2 2 2 2
left_child=1 3 4 8 11 14 13 19 -1 -7 -6 22 18 -5 -4 -10 -8 20 -9 -3 -14 -19 -2
right_child=2 7 5 6 10 9 16 12 15 -11 -12 -13 17 -15 -16 -17 -18 21 -20 -21 -22 -23 -24
leaf_value=-6.5062753556195432 1.2621225856912548 -1.7891795880453927 6.1339075033422468 -4.3331741534776924 4.1305591451204746 8.1686808358328697 -3.3098543106079101 -0.53283493053387188 -5.433199705497298 10.06954372253418 5.2633799229939777 2.627632169042315 0.26184686215150926 -3.8001412506898244 7.0477971125584027 -4.7710516250610349 -2.7705364515516493 0.54026216804981231 -0.20577685678856716 -1.218534901936849 0.043333031684160229 0.33136717086037004 1.6607558186848959
leaf_weight=84 28 27 186 241 77 174 199 33 188 49 149 27 20 191 101 149 89 27 34 20 20 23 26
leaf_count=84 28 27 186 241 77 174 199 33 188 49 149 27 20 191 101 149 89 27 34 20 20 23 26
internal_value=0.00414581 -3.75682 6.19274 -4.3653 4.11275 7.4343 -3.73036 -0.348834 -5.43975 8.62947 4.89734 1.89056 0.0264263 -4.10684 6.47889 -5.15544 -3.15337 0.324219 -0.372406 -1.5769 0.156434 0.45265 1.48085
internal_weight=2162 1345 817 1141 307 510 720 204 421 223 226 81 157 432 287 337 288 90 67 47 40 50 54
internal_count=2162 1345 817 1141 307 510 720 204 421 223 226 81 157 432 287 337 288 90 67 47 40 50 54
is_linear=0
shrinkage=0.05


Tree=19
num_leaves=24
num_cat=0
split_feature=26 41 26 41 26 26 26 26 26 26 26 26 26 26 26 26 26 8 21 26 26 26 79
split_gain=1.81983e+07 1.00781e+06 753880 274736 240450 138570 60114.2 34155.5 29194.2 21628.9 19435.8 10385.8 9735.8 6871.59 5776.51 4488.1 2661.4 1001.5 503.618 490.266 375.81 337.492 36.0962
threshold=1530.8965000000001 1359.4500122070315 1795.0425000000002 1251.8999633789065 1682.5675000000003 1890.6090000000002 1299.6500000000003 1446.0680000000002 1175.8750000000002 1613.2975000000004 1738.2110000000002 1957.7100000000003 1835.8390000000002 1487.8515000000004 1332.2750000000003 1232.8050000000001 1280.4250000000002 47.389949880770985 1322.9396049999989 1565.6000000000001 1466.0715000000002 1514.1085000000003 3.7275122070312823
decision_type=2 2 2 2 2 2 2 2 2 2 2 2 2 2 2 2 2 2 2 2 2 2 2
left_child=1 3 4 8 9 12 16 18 -1 19 -6 -7 -4 20 -8 -10 -5 -15 -3 -2 -9 22 -19
right_child=2 7 5 6 10 11 14 13 15 -11 -12 -13 -14 17 -16 -17 -18 21 -20 -21 -22 -23 -24
leaf_value=-6.7627623416215945 1.2011925358607851 -1.6985484095982142 6.057653613386484 -4.2049589949262911 4.272426702711317 8.0923765233737335 -3.2675928578694662 -0.54621862246440001 -5.2807702718932061 3.0469247195595193 5.3402506160736092 10.042093143463134 7.0473692668034493 0.049074108347748266 -2.7217684518432619 -4.582012094088963 -3.7326954498291016 0.23045888467268513 -1.1605094328380765 1.6633898495265418 -0.2748545824119023 0.56641693092527845 0.35465550261048173
leaf_weight=38 28 27 144 234 98 133 224 25 231 37 183 31 129 32 124 111 179 21 20 34 34 20 25
leaf_count=38 28 27 144 234 98 133 224 25 231 37 183 31 129 32 124 111 179 21 20 34 34 20 25
internal_value=0.00423617 -3.57023 5.88594 -4.1485 4.23736 7.30653 -3.58989 -0.331421 -5.25481 2.08846 4.98433 8.51958 6.54935 0.0252452 -3.08147 -5.06801 -4.0098 0.281014 -1.49865 1.47711 -0.39711 0.390983 0.304173
internal_weight=2162 1345 817 1141 380 437 761 204 380 99 281 164 273 157 348 342 413 98 47 62 59 66 46
internal_count=2162 1345 817 1141 380 437 761 204 380 99 281 164 273 157 348 342 413 98 47 62 59 66 46
is_linear=0
shrinkage=0.05


Tree=20
num_leaves=23
num_cat=0
split_feature=26 26 26 26 26 26 26 16 26 26 26 26 26 12 26 26 26 42 26 10 28 26
split_gain=1.64389e+07 910367 681411 246090 219762 132219 60582.8 35433.5 31373.1 23478.2 10533.8 6847.64 6545.36 2921.19 2548.52 1630.07 912.35 644.826 391.679 257.853 166.252 151.394
threshold=1530.8965000000001 1360.0700000000004 1763.3390000000002 1245.3750000000002 1848.6650000000002 1627.6740000000002 1293.2750000000003 1421.9213499999971 1944.3120000000001 1170.2850000000001 1707.3300000000002 1321.1600000000001 1487.8515000000004 39.306892300779261 1801.6000000000001 1276.3100000000002 1500.8280000000002 132.9049987792969 1466.0715000000002 0.30604887280057802 1514.1085000000003 1345.5500000000002
decision_type=2 2 2 2 2 2 2 2 2 2 2 2 2 2 2 2 2 2 2 2 2 2
left_child=1 3 5 9 14 13 15 17 -6 -1 -7 -8 18 -2 -4 -5 19 -3 -9 -14 -18 -13
right_child=2 7 4 6 8 10 11 12 -10 -11 -12 21 16 -15 -16 -17 20 -19 -20 -21 -22 -23
leaf_value=-6.6698312988281252 2.0521239070097606 -1.809840702783494 5.255805263760724 -4.0750993910932971 7.2525428407583661 3.3527732057924626 -3.2546624314044155 -0.53112750973020284 9.0216596112932486 -4.9130253116010483 4.4254016100975777 -2.8183137889024685 -0.045443522046719281 1.2790778202056887 5.9485481885113298 -3.6445576688756489 0.31189335203484486 -1.2505590572357177 -0.26150450139386316 0.20340394007308144 0.51436304861849003 -2.3388073659497639
leaf_weight=29 23 20 157 225 200 53 176 27 55 312 123 163 20 49 157 190 37 29 34 20 21 42
leaf_count=29 23 20 157 225 200 53 176 27 55 312 123 163 20 49 157 190 37 29 34 20 21 42
internal_value=0.00434188 -3.39295 5.5945 -3.94889 6.54961 3.38562 -3.45791 -0.349606 7.66789 -5.08151 4.12319 -2.9813 0.0153492 1.55082 5.61998 -3.88723 0.267577 -1.51057 -0.387568 0.0807846 0.392762 -2.73193
internal_weight=2162 1345 817 1137 569 248 796 208 255 341 176 381 159 72 314 415 98 49 61 40 58 205
internal_count=2162 1345 817 1137 569 248 796 208 255 341 176 381 159 72 314 415 98 49 61 40 58 205
is_linear=0
shrinkage=0.05


Tree=21
num_leaves=23
num_cat=0
split_feature=42 0 0 21 41 42 42 41 0 41 0 42 0 0 17 0 0 10 7 34 67 4
split_gain=1.48362e+07 852792 591117 244347 228450 50791.7 41372.5 40606.6 31517.8 24465.1 8589.92 4907.5 4236.87 3895.33 1463.37 1242.26 1055.76 913.52 810.026 664.385 405.041 75.1497
threshold=145.63000488281253 1385.6025000000002 1823.3650000000002 1579.3436399999994 1258.1499633789065 179.04000091552737 163.84500122070315 1317.1500244140627 1207.4000000000003 1459.5500488281252 1587.0310000000002 110.34500122070314 1496.9800000000002 1290.3850000000002 1420.8597439803025 1346.4450000000002 1241.4350000000002 14.611582309281205 2.0500000000000003 0.0015019000641961504 1.0081855451168504 97.739000000000019
decision_type=2 2 2 2 2 2 2 2 2 2 2 2 2 2 2 2 2 2 2 2 2 2
left_child=1 4 3 10 8 -4 -5 13 11 14 17 -1 18 -6 -3 -9 -10 -2 -11 20 -14 -20
right_child=2 9 5 6 7 -7 -8 15 16 12 -12 -13 19 -15 -16 -17 -18 -19 21 -21 -22 -23
leaf_value=-6.6001864260718932 1.5098081594897854 -1.3586506907145184 6.4514653639035817 3.9040414535999299 -3.6277212299693717 8.0029754288132136 5.1017010662119882 -2.6992182535256073 -4.5249625841077874 0.017607871872537276 2.3874993220738001 -5.0804482521329604 0.08644799785180525 -3.1897767718633019 -0.74727063374085856 -2.1587588221852374 -3.9928502792119982 0.9547026837955821 -0.22420193643797015 0.60807089839662831 0.36691668194894855 -0.38968264806838265
leaf_weight=20 30 32 213 127 274 110 278 202 181 33 34 111 21 191 21 40 127 21 20 20 36 20
leaf_count=20 30 32 213 127 274 110 278 202 181 33 34 111 21 191 21 40 127 21 20 20 36 20
internal_value=0.00430959 -3.21045 5.33592 4.22501 -3.73914 7.00293 4.73669 -3.17306 -4.64149 -0.222138 1.76023 -5.36075 0.105691 -3.45508 -1.13482 -2.61916 -4.3192 1.30409 -0.16612 0.362273 0.266944 -0.314551
internal_weight=2162 1349 813 490 1146 323 405 707 439 203 85 131 150 465 53 242 308 51 73 77 57 40
internal_count=2162 1349 813 490 1146 323 405 707 439 203 85 131 150 465 53 242 308 51 73 77 57 40
is_linear=0
shrinkage=0.05


Tree=22
num_leaves=25
num_cat=0
split_feature=26 26 26 26 26 26 26 26 26 26 26 26 26 26 26 26 26 26 26 26 26 62 36 26
split_gain=1.34119e+07 742093 560348 207142 155734 128157 41290.6 27093.1 21802.3 16625.9 15374.6 8435.86 7080.81 5668.69 4036.49 2440.34 1506.1 1250.4 1115.75 529.346 293.788 178.329 144.021 2.07075
threshold=1530.8965000000001 1385.6025000000002 1787.4340000000002 1272.6300000000003 1643.5735000000002 1880.8730000000003 1212.9400000000003 1318.1250000000002 1459.4120000000003 1727.1790000000003 1972.9250000000004 1831.4100000000001 1170.2850000000001 1587.0310000000002 1490.1075000000003 1243.0800000000002 1345.5500000000002 1287.4250000000002 1418.3300000000002 1506.1200000000001 1475.7340000000002 1480.6338806152346 -0.004325800155217799 1565.6000000000001
decision_type=2 2 2 2 2 2 2 2 2 2 2 2 2 2 2 2 2 2 2 2 2 2 2 2
left_child=1 3 4 6 13 11 12 17 18 -6 -7 -4 -1 23 20 -8 -9 -5 -3 21 -10 -16 -21 -2
right_child=2 8 5 7 9 10 15 16 14 -11 -12 -13 -14 -15 19 -17 -18 -19 -20 22 -22 -23 -24 -25
leaf_value=-6.0512430801391606 1.0309597276819165 -1.3757881984004268 5.1159245068839434 -3.4046136474609376 3.3438407741448817 6.9635583079083379 -4.224456464849367 -2.57618382498856 -0.35774482815606257 4.3755367618831782 9.1757086762927837 5.9575000063052848 -4.731298360035832 2.1522039284024923 0.22772335511857067 -3.7328121115429571 -2.0796510550555065 -3.0277822543956616 -0.82883560639840581 0.27785525137727912 -0.12268780611753463 0.031524894017548787 0.49457339812408796 1.35298622696488
leaf_weight=29 28 26 177 166 77 160 162 190 34 182 20 120 132 27 28 201 50 215 26 21 24 20 21 26
leaf_count=29 28 26 177 166 77 160 162 190 34 182 20 120 132 27 28 201 50 215 26 21 24 20 21 26
internal_value=0.00397362 -3.06463 5.05329 -3.55509 3.48461 6.16178 -4.29225 -2.92717 -0.252978 4.08288 7.25872 5.47482 -5.00497 1.54512 0.0582293 -3.96324 -2.48182 -3.20046 -1.1232 0.266752 -0.264293 0.148388 0.395312 1.20788
internal_weight=2162 1345 817 1145 340 477 524 621 200 259 180 297 161 81 148 363 240 381 52 90 58 48 42 54
internal_count=2162 1345 817 1145 340 477 524 621 200 259 180 297 161 81 148 363 240 381 52 90 58 48 42 54
is_linear=0
shrinkage=0.05


Tree=23
num_leaves=22
num_cat=0
split_feature=0 0 0 0 27 27 0 27 0 0 27 0 0 50 0 0 0 12 7 12 93
split_gain=1.21034e+07 734024 464246 186105 178227 44895.1 38708.6 29991.6 22198.8 21865.2 10164.6 3795.9 3085.14 2611.39 1912.37 1911.58 1150.43 1036.44 488.839 233.51 161.528
threshold=1552.1540000000002 1385.6025000000002 1823.3650000000002 1253.6250000000002 1682.5675000000003 1908.7490000000003 1312.3300000000002 1752.8390000000002 1190.6700000000003 1462.0515000000003 1613.2975000000004 1496.9800000000002 1277.3750000000002 115.56670000000001 1346.4450000000002 1972.9250000000004 1226.6850000000002 39.00282545116179 2.0500000000000003 51.397442066942574 0.037367696823702487
decision_type=2 2 2 2 2 2 2 2 2 2 2 2 2 2 2 2 2 2 2 2 2
left_child=1 3 4 8 10 -4 12 -6 -1 13 19 18 -5 -3 -8 -7 -10 20 -11 -2 -13
right_child=2 9 5 6 7 15 14 -9 16 11 -12 17 -14 -15 -16 -17 -18 -19 -20 -21 -22
leaf_value=-5.2105982925642778 1.4783343530737836 -1.210029203952887 5.8006318406604596 -3.4317491200900969 3.5764857369995116 6.840720900686164 -2.5000569528173733 4.6201518243942825 -4.2804711432206011 0.016053871352444678 2.4283602507909143 0.11995324336565459 -3.0315795670918062 -0.49274035515992542 -1.9489411754142951 8.6564240373883941 -3.7950853342949586 0.57040955524146553 -0.25349888099467055 1.0690745995839437 0.31679237150010614
leaf_weight=66 22 38 209 186 124 94 248 273 170 33 35 25 279 22 40 20 157 39 33 29 20
leaf_count=66 22 38 209 186 124 94 248 273 170 33 35 25 279 22 40 20 157 39 33 29 20
internal_value=0.00395956 -2.87968 4.85291 -3.37727 3.8564 6.32653 -2.90851 4.30399 -4.26575 -0.161135 1.76442 0.162415 -3.19868 -0.959495 -2.43054 7.23181 -4.05972 0.383504 -0.12042 1.27075 0.212531
internal_weight=2162 1356 806 1146 483 323 753 397 393 210 86 150 465 60 288 114 327 84 66 51 45
internal_count=2162 1356 806 1146 483 323 753 397 393 210 86 150 465 60 288 114 327 84 66 51 45
is_linear=0
shrinkage=0.05


Tree=24
num_leaves=24
num_cat=0
split_feature=26 26 26 26 26 26 26 26 26 26 26 26 26 26 26 26 26 26 50 68 26 59 26
split_gain=1.09455e+07 604585 460934 174175 142970 90043.3 34236.4 24294.3 13079.1 12648 11876.8 8663.97 8084.57 7033.26 2647.81 2029.18 1852.66 1522.31 1193.12 414.46 287.082 229.909 151.878
threshold=1530.8965000000001 1401.8680000000002 1795.0425000000002 1272.6300000000003 1682.5675000000003 1898.2650000000001 1212.9400000000003 1319.3700000000001 1613.2975000000004 1462.0515000000003 1738.2110000000002 1972.9250000000004 1838.4990000000003 1157.4700000000003 1493.2740000000001 1241.4350000000002 1346.1850000000002 1290.7250000000001 115.56670000000001 0.0091207417816078686 1478.8500000000001 33.650024414062507 1504.5240000000001
decision_type=2 2 2 2 2 2 2 2 2 2 2 2 2 2 2 2 2 2 2 2 2 2 2
left_child=1 3 4 6 8 12 13 17 21 18 -6 -7 -4 -1 20 -8 -9 -5 -3 22 -11 -2 -16
right_child=2 9 5 7 10 11 15 16 -10 14 -12 -13 -14 -15 19 -17 -18 -19 -20 -21 -22 -23 -24
leaf_value=-5.7539934939429882 1.2677303206293207 -1.0277333325147628 4.7204928009231368 -3.0516820326585035 3.298258934791642 6.4172461333755386 -3.8281838238703743 -2.2998311058847527 2.3646530382256761 -0.26899695050716405 4.1299207133832185 8.3395285615466896 5.5198786959682939 -4.3129438717264525 0.21508887930349874 -3.3800009176968397 -1.8098291992187503 -2.7004512041265318 -0.49770287903872412 0.095345745544348437 -0.042151858466863631 0.91926079970139729 0.40665915884290427
leaf_weight=20 37 31 153 194 98 128 153 189 37 34 183 20 136 141 21 210 49 197 21 27 24 25 34
leaf_count=20 37 31 153 194 98 128 153 189 37 34 183 20 136 141 21 210 49 197 21 27 24 25 34
internal_value=0.00397758 -2.76815 4.56545 -3.20039 3.2766 5.67614 -3.87811 -2.63054 1.61941 -0.169279 3.85262 6.73127 5.11443 -4.5264 0.0791916 -3.57892 -2.20696 -2.88207 -0.827206 0.26078 -0.17752 1.14412 0.33875
internal_weight=2162 1345 817 1153 380 437 524 629 99 192 281 148 289 161 140 363 238 391 52 82 58 62 55
internal_count=2162 1345 817 1153 380 437 524 629 99 192 281 148 289 161 140 363 238 391 52 82 58 62 55
is_linear=0
shrinkage=0.05


Tree=25
num_leaves=23
num_cat=0
split_feature=26 26 26 41 26 26 26 16 26 26 26 26 26 26 3 26 26 8 26 26 26 42
split_gain=9.88771e+06 546099 417396 147362 110095 101631 32678.7 26894.8 17736 13214.2 12788.9 9413.04 3993.26 3588.73 2043.73 2036.29 1588.92 603.012 514.166 222.335 213.911 30.484
threshold=1530.8965000000001 1353.0500000000004 1780.4800000000002 1248.9500122070315 1880.8730000000003 1627.6740000000002 1293.2750000000003 1421.9213499999971 1170.2850000000001 1957.7100000000003 1712.6190000000004 1823.3650000000002 1487.8515000000004 1322.1050000000002 99.08150000000002 1228.4850000000004 1401.8680000000002 47.389949880770985 1280.4250000000002 1514.1085000000003 1466.0715000000002 141.879997253418
decision_type=2 2 2 2 2 2 2 2 2 2 2 2 2 2 2 2 2 2 2 2 2 2
left_child=1 3 5 8 11 14 18 16 -1 -6 -7 -4 20 -8 -2 -10 -3 -14 -5 21 -9 -19
right_child=2 7 4 6 9 10 13 12 15 -11 -12 -13 17 -15 -16 -17 -18 19 -20 -21 -22 -23
leaf_value=-5.2504267094930022 0.98525465039645932 -1.5825531127929686 4.301443831907874 -3.1116839736277662 5.9228438817342131 2.6377854657942255 -2.5088138351848421 -0.41102341268743792 -3.9392588823413419 7.5741376852989193 3.6105016791207447 5.0440708391913054 0.027843148986046964 -2.1174724133471226 1.6278132011579431 -3.4303800593013261 -0.96390382177689493 0.16497084639642554 -2.7764229108903793 0.43392149073737007 -0.20995989726803135 0.26804541711807256
leaf_weight=29 50 24 186 253 149 61 186 27 220 31 174 144 32 187 22 112 33 22 142 20 34 24
leaf_count=29 50 24 186 253 149 61 186 27 220 31 174 144 32 187 22 112 33 22 142 20 34 24
internal_value=0.00398017 -2.63079 4.33944 -3.07113 5.21834 2.86715 -2.67184 -0.325632 -3.91086 6.24754 3.37028 4.63977 0.0104649 -2.31882 1.20127 -3.77842 -1.24727 0.207491 -2.99849 0.292803 -0.30423 0.223414
internal_weight=2162 1345 817 1129 510 307 768 216 361 180 235 330 159 373 72 332 57 98 395 66 61 46
internal_count=2162 1345 817 1129 510 307 768 216 361 180 235 330 159 373 72 332 57 98 395 66 61 46
is_linear=0
shrinkage=0.05


Tree=26
num_leaves=26
num_cat=0
split_feature=42 82 41 41 42 42 41 41 0 41 41 42 27 0 0 0 28 0 60 27 41 35 0 41 57
split_gain=8.92266e+06 512141 361412 138481 96342 90635.2 24162.8 20862 20638.7 16122.6 12360.6 4225.16 3124.34 3048.65 2251.84 840.566 659.619 552.058 450.131 383.771 243.765 112.189 99.5227 78.5032 16.6806
threshold=145.63000488281253 1359.4500122070315 1782.7500000000002 1258.1499633789065 154.31999969482425 173.91999816894534 1317.1500244140627 1960.8999633789065 1204.3600000000004 1452.7500000000002 1733.9500122070315 110.34500122070314 1613.2975000000004 1496.9800000000002 1290.3850000000002 1241.4350000000002 1478.8500000000001 1345.7000000000003 1410.0500052315849 1498.7040000000004 1514.1500244140627 0.0036516873098490503 1713.1940000000002 1564.8499755859377 0.29998779296875006
decision_type=2 2 2 2 2 2 2 2 2 2 2 2 2 2 2 2 2 2 2 2 2 2 2 2 2
left_child=1 3 4 8 12 -4 14 -7 11 18 22 -1 23 16 -5 -10 24 -8 -3 -15 -21 -18 -6 -2 -11
right_child=2 9 5 6 10 7 17 -9 15 13 -12 -13 -14 19 -16 -17 21 -19 -20 20 -22 -23 -24 -25 -26
leaf_value=-5.2324556041899193 0.83907459955215458 -1.1554671153315792 4.2745704647764873 -2.8091585288307885 2.4938110766691324 5.4658608962871416 -2.0962526887716706 7.2585797348022458 -3.5142015503089468 -0.34694980303446454 3.6346575010145035 -3.9612085168338518 1.8060310395558674 0.097693347464437072 -2.4726248349746069 -3.0965258845686914 -0.096570284668178796 -1.7180896763006848 -0.73989839640530675 0.25406984715802333 0.48706744562495841 0.065015076442875644 3.0509529819128649 1.1341193235642981 -0.23506776795500806
leaf_weight=20 24 26 244 274 50 215 193 29 190 20 147 102 20 22 191 127 20 47 21 34 21 21 52 32 20
leaf_count=20 24 26 244 274 50 215 193 29 190 20 147 102 20 22 191 127 20 47 21 34 21 21 52 32 20
internal_value=0.00392672 -2.48914 4.13862 -2.90122 2.83181 5.00136 -2.45952 5.70771 -3.60334 -0.186604 3.3073 -4.2105 1.25116 0.056823 -2.67654 -3.35715 -0.156403 -2.02965 -0.989175 0.280319 0.350231 -0.0141106 2.80476 1.0247 -0.298229
internal_weight=2162 1349 813 1144 325 488 705 244 439 205 249 122 76 158 465 317 81 240 47 77 55 41 102 56 40
internal_count=2162 1349 813 1144 325 488 705 244 439 205 249 122 76 158 465 317 81 240 47 77 55 41 102 56 40
is_linear=0
shrinkage=0.05


Tree=27
num_leaves=24
num_cat=0
split_feature=26 26 26 26 26 26 26 26 26 26 26 26 26 26 41 26 26 50 26 68 10 26 26
split_gain=8.06892e+06 445231 342364 129643 120600 54607.4 26962.2 17112.8 13785.8 9633.78 9376.92 4631.02 3752.84 3750.21 2881.78 1987.19 1497.58 866.499 803.882 350.5 310.268 209.133 105.6
threshold=1530.8965000000001 1401.8680000000002 1807.7200000000003 1273.7650000000001 1682.5675000000003 1902.7700000000002 1204.3600000000004 1319.3700000000001 1745.133 1613.2975000000004 1462.0515000000003 1972.9250000000004 1241.4350000000002 1157.4700000000003 1841.2500000000002 1493.2740000000001 1345.5500000000002 115.56670000000001 1287.4250000000002 0.0091207417816078686 14.611582309281205 1478.8500000000001 1504.5240000000001
decision_type=2 2 2 2 2 2 2 2 2 2 2 2 2 2 2 2 2 2 2 2 2 2 2
left_child=1 3 4 6 9 14 13 18 -6 20 17 -7 -8 -1 -4 21 -9 -3 -5 22 -2 -12 -17
right_child=2 10 5 7 8 11 12 16 -10 -11 15 -13 -14 -15 -16 19 -18 -19 -20 -21 -22 -23 -24
leaf_value=-4.9868624151320695 1.1001858263749342 -0.88373671084642413 4.1776240151723227 -2.6308922720259162 2.8788340463309452 5.6136281396775018 -3.3287483982224537 -1.9844110711239979 3.6571872673034669 2.0313528793736508 -0.23264021112663405 7.2446251242501409 -2.8988366766536937 -3.7797275758021089 4.8322543125421227 0.19214684372598478 -1.5785471507250255 -0.43104873982342806 -2.335477354336629 0.073727068407461058 0.76243230228424075 -0.038820755596458915 0.3538986936977932
leaf_weight=20 38 31 119 156 115 104 192 180 219 37 34 20 220 102 141 21 58 21 225 27 24 24 34
leaf_count=20 38 31 119 156 115 104 192 180 219 37 34 20 220 102 141 21 58 21 225 27 24 24 34
internal_value=0.00380856 -2.37633 3.92028 -2.74726 2.94402 5.01059 -3.32176 -2.24709 3.3986 1.39169 -0.146101 5.93258 -3.10677 -4.01659 4.54981 0.0678377 -1.89254 -0.712597 -2.46302 0.225157 0.983699 -0.154541 0.296762
internal_weight=2162 1345 817 1153 433 384 534 619 334 99 192 124 412 122 260 140 238 52 381 82 62 58 55
internal_count=2162 1345 817 1153 433 384 534 619 334 99 192 124 412 122 260 140 238 52 381 82 62 58 55
is_linear=0
shrinkage=0.05


Tree=28
num_leaves=22
num_cat=0
split_feature=26 26 26 26 26 26 26 26 26 26 26 42 41 26 5 41 26 26 67 26 26
split_gain=7.28933e+06 468115 274122 117168 91863.8 34265.7 24695.9 15436.6 12719.5 11773.1 9556.17 5507.53 3107.98 2355.69 2343.52 1457.18 1339.31 767.729 663.95 84.6235 70.0709
threshold=1557.5340000000003 1401.8680000000002 1823.3650000000002 1273.7650000000001 1698.6760000000002 1908.7490000000003 1212.9400000000003 1319.3700000000001 1760.7850000000003 1478.8500000000001 1613.2975000000004 110.34500122070314 1964.8499755859375 1517.9885000000002 2.3250000000000006 1244.5000000000002 1345.5500000000002 1290.7250000000001 0.99960610043036457 1466.0715000000002 1504.5240000000001
decision_type=2 2 2 2 2 2 2 2 2 2 2 2 2 2 2 2 2 2 2 2 2
left_child=1 3 4 6 10 -4 11 17 -6 14 -2 -1 -7 18 19 -8 -9 -5 -11 -3 -20
right_child=2 9 5 7 8 12 15 16 -10 13 -12 -13 -14 -15 -16 -17 -18 -19 20 -21 -22
leaf_value=-4.7515698169526601 1.0167382444337356 -0.35402045147759575 4.4879150655683784 -2.4782574520626586 2.8831914557180096 5.3596253690614803 -3.101140474398461 -1.8857386911508127 3.6032319666644725 -0.11070919707715512 2.0608530388559614 -3.5263496406985002 6.8379111381199058 0.58272323603692811 -0.82866316739250634 -2.7398221873311162 -1.5009575119665115 -2.1999760460131097 0.13426136535208893 -0.20740936238732607 0.24723014661308496
leaf_weight=20 42 27 212 184 123 90 168 180 253 24 55 141 22 37 33 205 58 197 33 26 32
leaf_count=20 42 27 212 184 123 90 168 180 253 24 55 141 22 37 33 205 58 197 33 26 32
internal_value=0.00379852 -2.2142 3.80052 -2.61092 3.02084 4.92595 -3.15708 -2.13542 3.37597 -0.0544035 1.6238 -3.70697 5.70799 0.252789 -0.502266 -2.91043 -1.79866 -2.34052 0.110619 -0.287363 0.192856
internal_weight=2162 1365 797 1153 473 324 534 619 376 212 97 161 112 126 86 373 238 381 89 53 65
internal_count=2162 1365 797 1153 473 324 534 619 376 212 97 161 112 126 86 373 238 381 89 53 65
is_linear=0
shrinkage=0.05


Tree=29
num_leaves=24
num_cat=0
split_feature=26 26 26 26 26 26 26 26 26 26 26 26 26 26 26 26 26 8 26 26 59 26 79
split_gain=6.58502e+06 363256 281770 99019.9 84659.1 57564.9 23566.4 17827.7 12225.9 7732.1 7192.21 6916.12 5474.71 2683.11 2553.46 1140.33 561.36 296.201 215.861 203.657 183.984 142.221 42.4303
threshold=1530.8965000000001 1353.0500000000004 1795.0425000000002 1245.3750000000002 1682.5675000000003 1901.3140000000001 1292.9600000000003 1446.0680000000002 1175.8750000000002 1613.2975000000004 1738.2110000000002 1838.4990000000003 1972.9250000000004 1328.6750000000002 1490.1075000000003 1401.8680000000002 1276.3100000000002 47.389949880770985 1475.7340000000002 1223.2700000000002 33.650024414062507 1514.1085000000003 3.7275122070312823
decision_type=2 2 2 2 2 2 2 2 2 2 2 2 2 2 2 2 2 2 2 2 2 2 2
left_child=1 3 4 8 9 11 16 15 -1 20 -6 -4 -7 -8 18 -3 -5 -16 -9 -10 -2 22 -19
right_child=2 7 5 6 10 12 13 14 19 -11 -12 -13 -14 -15 17 -17 -18 21 -20 -21 -22 -23 -24
leaf_value=-4.1783048365666318 0.99458826516803944 -1.2842575881958007 3.6598927938783321 -2.5797469042887733 2.5470913291699961 5.0496038447199645 -2.0075152794333064 -0.28460964840921488 -3.2393286390082778 1.8321270608901981 3.19288523570351 4.3164127947899606 6.5916264452253079 -1.6605643185164578 0.034268408316373823 -0.77387397209803266 -2.3072549281277501 0.12203360874205826 -0.092439201637357471 -2.8731753895695049 0.7096367348157443 0.35410055530922757 0.23096228057375323
leaf_weight=38 37 24 153 225 98 110 254 43 171 37 183 154 20 128 24 35 181 21 24 132 25 20 25
leaf_count=38 37 24 153 225 98 110 254 43 171 37 183 154 20 128 24 35 181 21 24 132 25 20 25
internal_value=0.00368981 -2.14649 3.54176 -2.50562 2.53422 4.41007 -2.19149 -0.266415 -3.22298 1.25876 2.97751 4.00218 5.33538 -1.89591 0.0136315 -0.999515 -2.46425 0.186787 -0.218218 -3.08981 0.892856 0.240834 0.184995
internal_weight=2162 1345 817 1129 380 437 788 216 341 99 281 307 130 382 157 59 406 90 67 303 62 66 46
internal_count=2162 1345 817 1129 380 437 788 216 341 99 281 307 130 382 157 59 406 90 67 303 62 66 46
is_linear=0
shrinkage=0.05


Tree=30
num_leaves=23
num_cat=0
split_feature=26 26 26 41 26 26 26 26 26 41 26 41 26 26 10 26 26 8 27 26 26 42
split_gain=5.94855e+06 327975 254765 89802.8 65893.5 63201.6 19769.6 16151 12147.5 9656.82 7838.07 7318.9 2312.85 2278.72 1232.74 1036.23 433.424 268.561 197.691 184.814 129.074 25.3956
threshold=1530.8965000000001 1353.0500000000004 1783.5435000000002 1248.9500122070315 1627.6740000000002 1898.2650000000001 1293.2750000000003 1446.0680000000002 1190.6700000000003 1720.350036621094 1838.4990000000003 1964.8499755859375 1490.1075000000003 1323.2500000000002 6.0947067033001305 1401.8680000000002 1282.4600000000003 47.389949880770985 1475.7340000000002 1698.6760000000002 1514.1085000000003 141.879997253418
decision_type=2 2 2 2 2 2 2 2 2 2 2 2 2 2 2 2 2 2 2 2 2 2
left_child=1 3 4 8 14 10 16 15 -1 19 -4 -7 18 -8 -2 -3 -5 -14 -9 -6 21 -19
right_child=2 7 5 6 9 11 13 12 -10 -11 -12 -13 17 -15 -16 -17 -18 20 -20 -21 -22 -23
leaf_value=-3.7224161535234597 1.2860230977194651 -1.2226132209777834 3.4238112257022673 -2.4038522570823138 1.825930745715187 4.7312499122919993 -1.9322736750447689 -0.28200528311423767 -2.8711042685122106 2.8520870116322312 4.061791483468383 6.2190944472603178 0.032623525518178938 -1.6226121537629947 0.77371750633671599 -0.73625510586632625 -2.1279274811283235 0.12582762441314432 -0.10375869095418602 2.3597967825995556 0.33723863015927025 0.2151554050922394
leaf_weight=66 20 24 201 272 41 126 202 38 295 193 136 22 24 171 52 35 123 22 29 26 20 24
leaf_count=66 20 24 201 272 41 126 202 38 295 193 136 22 24 171 52 35 123 22 29 26 20 24
internal_value=0.00369856 -2.03993 3.36644 -2.38118 2.28751 4.09876 -2.06953 -0.253484 -3.03661 2.65793 3.69255 4.9927 0.0130668 -1.79504 0.93176 -0.951259 -2.32353 0.177863 -0.207588 2.06483 0.229327 0.176126
internal_weight=2162 1345 817 1129 332 485 768 216 361 260 337 148 157 373 72 59 395 90 67 67 66 46
internal_count=2162 1345 817 1129 332 485 768 216 361 260 337 148 157 373 72 59 395 90 67 67 66 46
is_linear=0
shrinkage=0.05


Tree=31
num_leaves=24
num_cat=0
split_feature=26 26 26 26 26 26 26 26 26 26 26 26 41 5 26 26 26 12 26 67 26 42 26
split_gain=5.37361e+06 344502 203655 86930 63462.6 30557.7 16596.8 14507.5 8730.04 8233.96 6937.45 3487.45 2828.64 2033.79 1528.8 1527.55 1523.79 1025.49 974.092 349.232 113.501 54.8433 51.7245
threshold=1557.5340000000003 1401.8680000000002 1814.2590000000002 1265.9750000000001 1707.3300000000002 1908.7490000000003 1196.6350000000002 1314.8760000000002 1487.8515000000004 1627.6740000000002 1763.3390000000002 1972.9250000000004 1233.7500000000002 2.3250000000000006 1517.9885000000002 1157.4700000000003 1339.4250000000004 38.830466794528313 1287.0800000000002 0.99998952346300818 1471.3500000000001 141.879997253418 1842.2975000000001
decision_type=2 2 2 2 2 2 2 2 2 2 2 2 2 2 2 2 2 2 2 2 2 2 2
left_child=1 3 4 6 9 22 15 18 13 17 -6 -7 -8 20 19 -1 -9 -2 -5 -10 -3 -21 -4
right_child=2 8 5 7 10 11 12 16 14 -11 -12 -13 -14 -15 -16 -17 -18 -19 -20 21 -22 -23 -24
leaf_value=-4.1527371506463915 1.2760064781279792 -0.28718852205408946 3.4365250699948042 -2.1892778107699224 2.5070985949424003 4.6174302164713543 -2.7866465555056177 -1.6691777628944031 -0.065352881667869442 1.8958009052276612 3.0743594640894321 5.9993047042120082 -2.4123177307783958 -0.71655047416687012 0.49991772730883799 -3.1620839356642501 -1.3429528050089994 0.75333925651781486 -1.9313859187126159 0.12008134450876354 -0.13940804646522911 0.22346527858575188 3.9647156116797491
leaf_weight=20 20 35 77 203 123 92 197 188 20 53 222 20 197 33 37 64 85 32 199 32 26 29 158
leaf_count=20 20 35 77 203 123 92 197 188 20 53 222 20 197 33 37 64 85 32 199 32 26 29 158
internal_value=0.0037732 -1.90059 3.26363 -2.24093 2.55102 4.17776 -2.76024 -1.86964 -0.0477672 1.4532 2.87996 4.91515 -2.60608 -0.405005 0.237782 -3.44409 -1.5729 0.974742 -2.06674 0.113344 -0.227545 0.172123 3.80696
internal_weight=2162 1365 797 1153 450 347 478 675 212 105 345 112 394 94 118 84 273 52 402 81 61 61 235
internal_count=2162 1365 797 1153 450 347 478 675 212 105 345 112 394 94 118 84 273 52 402 81 61 61 235
is_linear=0
shrinkage=0.05


Tree=32
num_leaves=25
num_cat=0
split_feature=26 26 26 26 26 26 26 16 27 41 26 26 41 26 26 26 26 26 26 67 10 26 26 12
split_gain=4.85489e+06 267471 209168 73778.9 61765.2 43318.1 17243.7 13150.5 10073.8 6079.1 5714.05 5433.68 4485.87 1993.71 1910.07 749.845 701.818 604.196 550.986 346.425 258.802 120.078 104.508 65.5072
threshold=1530.8965000000001 1353.0500000000004 1795.0425000000002 1245.3750000000002 1682.5675000000003 1902.7700000000002 1293.2750000000003 1421.9213499999971 1170.2850000000001 1733.9500122070315 1613.2975000000004 1842.2975000000001 1964.8499755859375 1487.8515000000004 1330.8900000000001 1222.0000000000002 1401.8680000000002 1276.3100000000002 1712.6190000000004 0.99960610043036457 14.611582309281205 1514.1085000000003 1466.0715000000002 34.386059890896398
decision_type=2 2 2 2 2 2 2 2 2 2 2 2 2 2 2 2 2 2 2 2 2 2 2 2
left_child=1 3 4 8 10 11 17 16 -1 18 20 -4 -7 22 -8 -10 -3 -5 -6 -15 -2 23 -9 -21
right_child=2 7 5 6 9 12 14 13 15 -11 -12 -13 -14 19 -16 -17 -18 -19 -20 21 -22 -23 -24 -25
leaf_value=-3.7614845059712732 0.86863981671822366 -1.0994660594940187 3.1706965101332893 -2.212435531278627 1.7374503650665287 4.3425143262252064 -1.7135399545083836 -0.29136813861983163 -2.8120577712923467 2.7232501960639381 1.577012677443655 3.7406387401762462 5.6557647340194039 -0.023791233220448099 -1.4128225710372295 -2.4723795118531982 -0.68177670506870047 -1.9724310201874578 2.2853387888128109 0.19433940683388051 0.58364932470321651 0.30247388544536774 -0.15030530788217275 0.075176180636598949
leaf_weight=29 38 24 167 225 29 102 253 27 170 198 37 146 22 23 120 142 33 190 54 35 24 20 34 20
leaf_count=29 38 24 167 225 29 102 253 27 170 198 37 146 22 23 120 142 33 190 54 35 24 20 34 20
internal_value=0.00375811 -1.84247 3.04168 -2.15064 2.17366 3.78979 -1.87953 -0.229194 -2.76979 2.55232 1.08405 3.44763 4.61893 0.00582429 -1.62084 -2.66587 -0.873656 -2.10757 2.11693 0.145059 0.769416 0.196538 -0.216516 0.153213
internal_weight=2162 1345 817 1129 380 437 788 216 341 281 99 313 124 159 373 312 57 415 83 98 62 75 61 55
internal_count=2162 1345 817 1129 380 437 788 216 341 281 99 313 124 159 373 312 57 415 83 98 62 75 61 55
is_linear=0
shrinkage=0.05


Tree=33
num_leaves=22
num_cat=0
split_feature=41 0 0 41 41 41 41 27 42 27 41 41 27 12 18 42 29 67 0 30 12
split_gain=4.38101e+06 302556 155333 69818.3 50871.6 16465.9 13639 11018.5 9753.53 7001.95 5918.55 2672.79 2561.97 2218.52 1498.13 1494.94 858.354 424.496 421.31 281.687 192.803
threshold=1564.8499755859377 1385.6025000000002 1835.8390000000002 1254.2500000000002 1720.350036621094 1964.8499755859375 1317.1500244140627 1170.2850000000001 138.34999847412112 1627.6740000000002 1774.7000122070315 1226.549987792969 1888.6125000000004 39.00282545116179 1419.7385137243352 121.72500228881837 1517.9885000000002 1.0039555053116964 1346.4450000000002 1.5000000000000002 39.306892300779261
decision_type=2 2 2 2 2 2 2 2 2 2 2 2 2 2 2 2 2 2 2 2 2
left_child=1 3 4 7 9 12 15 -1 14 20 -6 -9 -4 17 -3 -5 -15 19 -8 -10 -2
right_child=2 8 5 6 10 -7 18 11 13 -11 -12 -13 -14 16 -16 -17 -18 -19 -20 -21 -22
leaf_value=-3.5796795247395838 1.0694791360128493 -0.71595655697148031 3.4301746939009981 -2.0112879654566447 2.3775068492620761 5.3852715002972147 -1.4569827118295755 -2.6186792497975486 -0.13268358535460525 1.773112973325393 2.8728053392239703 -2.2455707325079501 3.9834738433438965 0.21750029632449153 -0.251509641671882 -1.7689040865953363 0.60810148815954879 0.16950964944109925 -1.1577462480126357 0.082299210220002209 0.72524315979169762
leaf_weight=29 20 40 118 239 141 22 202 223 36 67 245 155 152 29 33 258 30 36 40 25 22
leaf_count=29 20 40 118 239 141 22 202 223 36 67 245 155 152 29 33 258 30 36 40 25 22
internal_value=0.00377022 -1.69871 2.97663 -2.02999 2.42751 3.89602 -1.73528 -2.55954 -0.0392046 1.45201 2.6985 -2.47203 3.75523 0.184003 -0.512305 -1.88928 0.423019 0.0357382 -1.41251 -0.0445889 0.910341
internal_weight=2162 1375 787 1146 495 292 739 407 229 109 386 378 270 156 73 497 59 97 242 61 42
internal_count=2162 1375 787 1146 495 292 739 407 229 109 386 378 270 156 73 497 59 97 242 61 42
is_linear=0
shrinkage=0.05


Tree=34
num_leaves=26
num_cat=0
split_feature=26 82 26 26 26 26 26 26 26 26 26 26 26 26 42 26 26 26 26 34 10 8 28 26 79
split_gain=3.96228e+06 218021 172039 62895.6 57885.9 28692.7 12158.3 11044.1 7070.37 6751.07 4624.86 2690.77 2457.81 1603.52 1483.63 1228.87 877.878 708.496 454.288 319.489 217.549 184.711 86.5666 82.7628 38.611
threshold=1530.8965000000001 1359.4500122070315 1807.7200000000003 1256.1500000000003 1682.5675000000003 1921.4850000000004 1314.8760000000002 1196.6350000000002 1745.133 1459.4120000000003 1613.2975000000004 1848.6650000000002 1972.9250000000004 1283.7900000000002 110.34500122070314 1490.1075000000003 1340.4850000000004 1235.4050000000002 1418.3300000000002 -0.0063860109531285987 14.611582309281205 47.389949880770985 1517.9885000000002 1475.7340000000002 3.4650122070312368
decision_type=2 2 2 2 2 2 2 2 2 2 2 2 2 2 2 2 2 2 2 2 2 2 2 2 2
left_child=1 3 4 7 10 11 13 14 19 18 20 -4 -7 -5 -1 23 -8 -9 -3 -6 -2 -17 24 -11 -23
right_child=2 9 5 6 8 12 16 17 -10 15 -12 -13 -14 -15 -16 21 -18 -19 -20 -21 -22 22 -24 -25 -26
leaf_value=-3.6110170691353938 0.78788802733788121 -0.77512123567717417 2.9555413592411921 -1.9281192371674944 1.5517523751940046 4.0063952126502995 -1.4277243834125752 -2.3786710794539676 2.5554782291759146 -0.1978902515258108 1.4242092526586434 3.4472380687932302 5.2201819428943459 -1.6768602211062917 -2.7240146977351265 0.024509220021963124 -1.1475608848844256 -2.0838449176522187 -0.44224678922582561 2.0790275153517723 0.52794450216293332 0.087424213231905648 0.27002456122118496 -0.072322897720336912 0.18845743367205497
leaf_weight=20 38 27 129 223 20 79 195 209 219 34 37 156 20 236 64 24 69 128 26 95 24 22 22 24 22
leaf_count=20 38 27 129 223 20 79 195 209 219 34 37 156 20 236 64 24 69 128 26 95 24 22 22 24 22
internal_value=0.00373799 -1.66415 2.74822 -1.93078 2.05634 3.52101 -1.64295 -2.42001 2.37131 -0.144578 0.980562 3.23581 4.3014 -1.80287 -2.97526 0.0297942 -1.35913 -2.2732 -0.623131 2.00154 0.697321 0.144874 0.18755 -0.148123 0.141117
internal_weight=2162 1345 817 1144 433 384 723 421 334 201 99 285 99 459 84 148 264 337 53 115 62 90 66 58 44
internal_count=2162 1345 817 1144 433 384 723 421 334 201 99 285 99 459 84 148 264 337 53 115 62 90 66 58 44
is_linear=0
shrinkage=0.05


Tree=35
num_leaves=25
num_cat=0
split_feature=26 26 26 26 26 26 26 26 26 26 41 26 26 26 3 26 26 26 26 62 75 29 26 68
split_gain=3.57966e+06 196979 155815 54814.4 43388.8 35761.7 12898.6 9722.37 8027.45 7495.48 4554.42 3406.2 1405.25 1351.41 902.191 688.728 616.586 612.935 262.457 247.558 105.814 98.507 58.3428 33.5744
threshold=1530.8965000000001 1353.0500000000004 1780.4800000000002 1245.3750000000002 1888.6125000000004 1627.6740000000002 1294.3100000000002 1446.0680000000002 1170.2850000000001 1972.9250000000004 1720.350036621094 1823.3650000000002 1487.8515000000004 1335.1000000000001 99.08150000000002 1212.9400000000003 1278.2500000000002 1401.8680000000002 1698.6760000000002 1484.422773573134 16.817714285714288 1510.8960000000002 1471.3500000000001 0.0086040685174305302
decision_type=2 2 2 2 2 2 2 2 2 2 2 2 2 2 2 2 2 2 2 2 2 2 2 2
left_child=1 3 5 8 11 14 16 17 -1 -6 18 -4 22 -8 20 -10 -5 -3 -7 21 -2 23 -9 -14
right_child=2 7 4 6 9 10 13 12 15 -11 -12 -13 19 -15 -16 -17 -18 -19 -20 -21 -22 -23 -24 -25
leaf_value=-3.2575790316263835 0.704255736214774 -0.9477212608337402 2.5917657970489665 -1.8921262917032047 3.6305511420113699 1.4048300690878008 -1.4516770201082583 -0.22666291580480691 -2.4543552679764598 4.9716017550513865 2.1648847180428592 3.0333426144248561 0.17232129903855151 -1.1780671037236849 1.0033217008217521 -2.1529945337706509 -1.6771674973925172 -0.57260458257463243 1.8458801665129485 0.010433540134267375 0.4843628829909909 0.27326697578032816 -0.11730501724303598 0.078972380558649691
leaf_weight=29 20 24 186 244 153 41 269 33 132 20 168 151 26 95 22 180 180 35 26 32 30 20 26 20
leaf_count=29 20 24 186 244 153 41 269 33 132 20 168 151 26 95 22 180 180 35 26 32 30 20 26 20
internal_value=0.00370516 -1.58161 2.61231 -1.84607 3.14922 1.71303 -1.61242 -0.19715 -2.3797 3.8133 2.01151 2.79803 0.00965338 -1.3837 0.724535 -2.28794 -1.80504 -0.73853 1.60069 0.125344 0.584502 0.179996 -0.181313 0.134385
internal_weight=2162 1345 817 1129 510 307 788 216 341 173 235 337 157 364 72 312 424 59 67 98 50 66 59 46
internal_count=2162 1345 817 1129 510 307 788 216 341 173 235 337 157 364 72 312 424 59 67 98 50 66 59 46
is_linear=0
shrinkage=0.05


Tree=36
num_leaves=26
num_cat=0
split_feature=26 26 26 26 26 26 26 26 26 26 26 42 26 26 26 50 26 26 73 67 26 3 26 45 45
split_gain=3.23394e+06 206944 124405 53072.9 36007.3 22462.2 12392.8 7483.08 5281.6 4633.04 4105.09 2358.5 2325.49 1536.67 1096.04 1062.91 611.239 480.179 424.628 372.195 322.775 251.538 76.1411 42.2223 36.5351
threshold=1557.5340000000003 1401.8680000000002 1811.0500000000002 1272.6300000000003 1698.6760000000002 1931.4145000000003 1202.2600000000002 1320.2250000000001 1478.8500000000001 1756.3320000000001 1627.6740000000002 110.34500122070314 1860.1000000000001 1238.1775000000002 1517.9885000000002 115.55475000000003 1346.1850000000002 1287.4250000000002 1531.0931905493007 0.99960610043036457 1972.9250000000004 99.024500000000003 1462.0515000000003 1.7870000004768374 1.6819999814033511
decision_type=2 2 2 2 2 2 2 2 2 2 2 2 2 2 2 2 2 2 2 2 2 2 2 2 2
left_child=1 3 4 6 10 12 11 17 15 -6 21 -1 -4 -8 19 -3 -9 -5 -12 -10 -7 -2 -17 24 -21
right_child=2 8 5 7 9 20 13 16 14 -11 18 -13 -14 -15 -16 22 -18 -19 -20 23 -22 -23 -24 -25 -26
leaf_value=-3.2839412380400166 0.62113098170608283 -0.56856048762798306 2.7192051468496246 -1.6674163585365891 1.8824157783441375 3.6965352109273271 -2.1141220775663547 -1.2359756572953948 -0.094229415215738119 2.3482908817715114 1.6839361979744654 -2.4235679348655368 3.175701002924697 -1.8402772397393576 0.39314768631207314 -0.27630315184593202 -0.96260013284683232 -1.4741758485940786 1.1686714351654053 0.14136525716632606 4.7348588997977128 0.9247304364226081 -0.14541643055634842 0.19450499889396489 0.047455798926807582
leaf_weight=20 31 31 126 166 113 59 192 181 24 224 21 91 158 221 37 21 49 233 24 25 20 21 34 20 20
leaf_count=20 31 31 126 166 113 59 192 181 24 224 21 91 158 221 37 21 49 233 24 25 20 21 34 20 20
internal_value=0.00366904 -1.47368 2.53257 -1.73746 1.9528 3.21845 -2.11145 -1.42303 -0.0376368 2.19812 1.08672 -2.60657 2.98344 -1.9724 0.168115 -0.337611 -1.18218 -1.55855 1.44062 0.0711771 4.01536 0.758967 -0.199522 0.132828 0.101675
internal_weight=2162 1365 797 1153 434 363 524 629 212 337 97 111 284 413 126 86 230 399 45 89 79 52 55 65 45
internal_count=2162 1365 797 1153 434 363 524 629 212 337 97 111 284 413 126 86 230 399 45 89 79 52 55 65 45
is_linear=0
shrinkage=0.05


Tree=37
num_leaves=26
num_cat=0
split_feature=26 82 26 26 26 26 26 26 26 26 26 26 2 26 26 26 26 50 26 80 28 26 12 78 29
split_gain=2.92184e+06 160553 127829 46741.5 33240.6 31267.6 9059.52 8532.29 5000.3 4360.72 4047.12 3545.76 1588.06 1319.74 1143.44 755.923 649.757 599.009 516.689 188.438 121.481 101.007 62.2251 45.5113 4.86747
threshold=1530.8965000000001 1359.4500122070315 1788.1315000000002 1256.1500000000003 1643.5735000000002 1902.7700000000002 1314.8760000000002 1196.6350000000002 1462.0515000000003 1838.4990000000003 1727.1790000000003 1972.9250000000004 99.040500000000023 1157.4700000000003 1285.1125000000002 1498.7040000000004 1341.2950000000003 115.56670000000001 1224.2250000000001 1490.0999755859377 1517.9885000000002 1565.6000000000001 23.250331337171637 4.1000000000000236 1707.3300000000002
decision_type=2 2 2 2 2 2 2 2 2 2 2 2 2 2 2 2 2 2 2 2 2 2 2 2 2
left_child=1 3 4 7 12 9 14 13 17 -4 24 -7 21 -1 -5 19 -8 -3 -9 23 22 -2 -17 -10 -6
right_child=2 8 5 6 10 11 16 18 15 -11 -12 -13 -14 -15 -16 20 -18 -19 -20 -21 -22 -23 -24 -25 -26
leaf_value=-3.1302751958937876 0.46476603750671663 -0.61241968771306476 2.4179279056672129 -1.6455704920351011 1.7933984266627918 3.392956520443871 -1.2172233610245788 -2.0957584799307365 -0.07684178503803335 2.8728461053504706 2.0327015947671461 4.5093894740513392 1.1180358135132562 -2.3433284366314231 -1.4316087018191543 0.17824288811002462 -0.96369037977854421 -0.26311595960096884 -1.8450787105747297 0.035685361684965236 0.26446047963131047 0.65987328268800471 0.058540018498897554 -0.18050186875721685 1.408314215844138
leaf_weight=20 27 40 185 241 21 104 205 134 25 160 190 20 20 64 218 20 59 21 203 27 20 34 26 22 56
leaf_count=20 27 40 185 241 21 104 205 134 25 160 190 20 20 64 218 20 59 21 203 27 20 34 26 22 56
internal_value=0.00366244 -1.4286 2.36043 -1.65741 1.62633 2.9005 -1.4093 -2.07912 -0.124582 2.63661 1.89547 3.6077 0.726802 -2.56538 -1.54729 0.0406533 -1.16443 -0.498432 -1.95068 -0.0686699 0.162498 0.582484 0.113376 -0.128217 1.53505
internal_weight=2162 1345 817 1144 348 469 723 421 201 345 267 124 81 84 459 140 264 61 337 74 66 61 46 47 77
internal_count=2162 1345 817 1144 348 469 723 421 201 345 267 124 81 84 459 140 264 61 337 74 66 61 46 47 77
is_linear=0
shrinkage=0.05


Tree=38
num_leaves=27
num_cat=0
split_feature=26 26 26 41 26 26 26 26 26 41 41 26 26 26 12 26 26 0 26 10 62 34 26 29 29 62
split_gain=2.63965e+06 145091 115600 40976.3 37629.8 21117.5 8325.34 7175.49 6909.71 4884.82 3601.12 3070.36 1470.33 1054.3 875.82 822.178 507.274 464.392 442.243 163.443 135.429 95.2034 86.1308 75.9738 21.9751 8.71192
threshold=1530.8965000000001 1353.0500000000004 1806.6090000000002 1251.8999633789065 1682.5675000000003 1931.4145000000003 1299.6500000000003 1446.0680000000002 1170.2850000000001 1733.9500122070315 1841.2500000000002 1613.2975000000004 1230.5750000000003 1490.1075000000003 54.190848201884513 1335.1000000000001 1712.6190000000004 1401.8680000000002 1282.4600000000003 14.611582309281205 1484.422773573134 -0.0046041529469041985 1475.7340000000002 1510.8960000000002 1493.2740000000001 1493.6299926757815
decision_type=2 2 2 2 2 2 2 2 2 2 2 2 2 2 2 2 2 2 2 2 2 2 2 2 2 2
left_child=1 3 4 8 11 10 18 17 -1 16 -4 19 -10 22 -7 -8 -6 -3 -5 -2 23 -11 25 24 -15 -9
right_child=2 7 5 6 9 14 15 13 12 21 -12 -13 -14 20 -16 -17 -18 -19 -20 -21 -22 -23 -24 -25 -26 -27
leaf_value=-2.8148186594645188 0.64722659995922671 -0.80988336966587937 2.3766918972345787 -1.5898725867083692 1.24555411084493 3.336286133448283 -1.2317128048258379 -0.21172526558240257 -2.0364443532109777 1.7638249868027707 2.837799242703035 1.1628915013765033 -1.731285590187448 0.15596491905904952 4.3280348423549109 -1.0081306973596413 1.6785337971774017 -0.48615932076317919 -1.4033248019958875 0.42764456942975526 0.024292265759514913 2.105474507605011 -0.061089851814508433 0.24007490325541725 0.077252127838631474 -0.14085697517863341
leaf_weight=29 38 25 126 253 29 59 241 23 230 46 186 37 121 20 20 95 54 34 160 24 27 198 24 20 23 20
leaf_count=29 38 25 126 253 29 59 241 23 230 46 186 37 121 20 20 95 54 34 160 24 27 198 24 20 23 20
internal_value=0.0036043 -1.35774 2.24367 -1.58472 1.66681 2.8663 -1.36618 -0.169531 -2.01074 1.92558 2.65979 0.801328 -1.93648 0.00812925 3.63839 -1.17169 1.54394 -0.634626 -1.52118 0.570444 0.119407 2.04855 -0.140833 0.159076 0.116689 -0.182827
internal_weight=2162 1345 817 1129 426 391 749 216 380 327 312 99 351 157 79 336 83 59 413 62 90 244 67 63 43 43
internal_count=2162 1345 817 1129 426 391 749 216 380 327 312 99 351 157 79 336 83 59 413 62 90 244 67 63 43 43
is_linear=0
shrinkage=0.05


Tree=39
num_leaves=25
num_cat=0
split_feature=41 0 41 41 41 41 41 0 27 80 27 41 27 5 27 0 92 27 34 34 34 0 12 54
split_gain=2.38185e+06 164420 85793.7 39560.8 29983 10160.1 7377.37 7234.99 6263.51 4206.04 1904.9 1645.32 1010.01 900.118 578.214 434.825 399.969 209.651 194.712 176.543 172.809 174.754 157.231 83.3315
threshold=1564.8499755859377 1401.8680000000002 1841.2500000000002 1258.1499633789065 1733.9500122070315 1964.8499755859375 1317.1500244140627 1175.8750000000002 1627.6740000000002 1481.8499755859377 1235.4050000000002 1782.7500000000002 1526.9725000000001 2.3250000000000006 1291.1000000000001 1346.4450000000002 0.47500000000000014 1908.7490000000003 -0.0046041529469041985 0.0010946270945496502 -0.0053062040886645489 1498.7040000000004 39.306892300779261 60.195000000000007
decision_type=2 2 2 2 2 2 2 2 2 2 2 2 2 2 2 2 2 2 2 2 2 2 2 2
left_child=1 3 4 7 8 17 14 -1 22 13 -9 18 20 19 -5 -8 -10 -4 -6 -3 -11 -22 -2 -23
right_child=2 9 5 6 11 -7 15 10 16 12 -12 -13 -14 -15 -16 -17 -18 -19 -20 -21 21 23 -24 -25
leaf_value=-2.5728058966612206 0.79502257625261941 -0.20196986297098923 2.6536498306323955 -1.4445234002422183 1.4546196310860771 4.0792677804698121 -1.0693510789354446 -1.8993234284210203 1.1862579270771572 -0.041442706279811406 -1.6091945929932436 2.1777800616702518 0.38955527465045447 -0.47142011490735136 -1.2713703025797363 -0.83596389527223547 1.5233641790662495 3.0344314054263535 1.924422916918993 -0.018727729189253989 0.029362537029289426 0.26147451491582968 0.51948785022549016 0.11047985010526398
leaf_weight=38 20 39 153 280 20 22 202 249 41 20 152 221 39 32 185 48 69 92 127 20 30 20 22 21
leaf_count=38 20 39 153 280 20 22 202 249 41 20 152 221 39 32 185 48 69 92 127 20 30 20 22 21
internal_value=0.00362964 -1.25169 2.19565 -1.49076 1.81473 2.92798 -1.2576 -1.86679 1.20992 -0.00216336 -1.79364 2.06057 0.179799 -0.261293 -1.37852 -1.02807 1.40958 2.80841 1.8708 -0.141285 0.086592 0.122802 0.666249 0.188727
internal_weight=2162 1375 787 1154 520 267 715 439 152 221 401 368 130 91 465 250 110 245 147 59 91 71 42 41
internal_count=2162 1375 787 1154 520 267 715 439 152 221 401 368 130 91 465 250 110 245 147 59 91 71 42 41
is_linear=0
shrinkage=0.05


Tree=40
num_leaves=24
num_cat=0
split_feature=26 26 26 41 88 26 26 42 26 41 41 41 41 2 26 26 26 26 26 68 27 59 75
split_gain=2.15491e+06 118200 94936.9 33588.5 26895.8 21241.6 7294.57 5856.8 5845.71 4637.52 3344.99 2151.81 1283.48 1244.86 863.684 835.784 705.022 514.227 379.932 150.65 83.2011 76.2142 73.1167
threshold=1530.8965000000001 1353.0500000000004 1795.0425000000002 1248.9500122070315 1583.1500244140627 1902.7700000000002 1299.6500000000003 110.34500122070314 1446.0680000000002 1733.9500122070315 1964.8499755859375 1841.2500000000002 1211.1499633789065 98.971500000000006 1490.1075000000003 1698.6760000000002 1337.3150000000003 1278.9750000000001 1401.8680000000002 0.0091207417816078686 1475.7340000000002 40.100036621093757 17.366107142857171
decision_type=2 2 2 2 2 2 2 2 2 2 2 2 2 2 2 2 2 2 2 2 2 2 2
left_child=1 3 4 7 13 11 17 -1 18 15 -7 -4 -9 22 20 -6 -8 -5 -3 21 -10 -16 -2
right_child=2 8 5 6 9 10 16 12 14 -11 -12 -13 -14 -15 19 -17 -18 -19 -20 -21 -22 -23 -24
leaf_value=-2.7256960787091939 0.55128224895113997 -0.73797211246490479 2.1185249468337655 -1.4559958717378521 1.0871460442665295 2.9061334602578173 -1.1048889694580664 -1.9334339247654826 -0.17655849345219443 1.8077548797166525 3.8841723118657656 2.4877641285716239 -1.6554956210238263 0.90779395356774328 0.10285714752227069 1.4845732144748465 -0.88549990433913028 -1.2835765673415829 -0.44352209091186517 0.01012358993291855 -0.061237732112407683 0.22235272308190665 0.37937189829349516
leaf_weight=20 20 24 171 235 38 102 259 136 38 198 22 142 205 23 39 67 77 197 35 28 29 23 34
leaf_count=20 20 24 171 235 38 102 259 136 38 198 22 142 205 23 39 67 77 197 35 28 29 23 34
internal_value=0.00364957 -1.22636 2.02761 -1.43123 1.44294 2.53155 -1.24073 -1.83194 -0.153893 1.65494 3.10938 2.29344 -1.77169 0.598103 0.0064647 1.3524 -1.0574 -1.38053 -0.573685 0.10719 -0.128352 0.150091 0.451999
internal_weight=2162 1345 817 1129 380 437 768 361 216 303 124 313 341 77 157 105 336 432 59 90 67 62 54
internal_count=2162 1345 817 1129 380 437 768 361 216 303 124 313 341 77 157 105 336 432 59 90 67 62 54
is_linear=0
shrinkage=0.05


Tree=41
num_leaves=26
num_cat=0
split_feature=42 0 41 41 42 0 41 42 41 41 41 41 41 2 0 34 42 34 60 34 42 34 29 34 34
split_gain=1.94395e+06 111193 81645.8 31707.8 23363.9 18392.8 6700.42 5585.49 5094.96 4088.16 3346.24 1442.35 1167.02 1006.86 875.195 856.193 562.848 372.878 272.613 265.143 235.932 186.159 122.941 47.0255 40.2664
threshold=145.63000488281253 1385.6025000000002 1793.5999755859377 1251.8999633789065 154.31999969482425 1891.5590000000002 1317.1500244140627 110.34500122070314 1964.8499755859375 1733.9500122070315 1459.5500488281252 1211.1499633789065 1841.2500000000002 98.971500000000006 1277.3750000000002 -0.0043706498852339485 141.26499938964847 -0.0046041529469041985 1410.0500052315849 0.00091236825326505009 127.00000000000001 -0.0015535904388957499 1498.7040000000004 -0.00055438882509594985 0.0010946270945496502
decision_type=2 2 2 2 2 2 2 2 2 2 2 2 2 2 2 2 2 2 2 2 2 2 2 2 2
left_child=1 3 4 7 13 12 14 -1 -7 15 18 -9 -4 24 -5 -6 19 -11 -3 23 -8 -18 -23 -12 -2
right_child=2 10 5 6 9 8 20 11 -10 17 16 -13 -14 -15 -16 -17 21 -19 -20 -21 -22 22 -24 -25 -26
leaf_value=-2.5959010769072037 0.39349275734482542 -0.54763724880218501 1.995342112766223 -1.3715033336639404 0.89830737091246116 2.6739504003862962 -0.99280899775822962 -1.8374678766292378 3.6984075927734374 1.3719205812045505 -0.17919637020145146 -1.5631220403035482 2.3302225222677553 0.88370029891079127 -1.1964398377365861 1.3747176092216769 0.024083925754479742 1.7763436029607598 -0.29685173659523328 0.060600504823686445 -0.83330511154012488 0.10077484732050271 0.27271088432382656 -0.075429990728696189 0.54669627893538697
leaf_weight=20 35 24 177 199 20 140 149 136 22 27 20 224 105 21 325 82 22 164 29 33 93 20 26 29 20
leaf_count=20 35 24 177 199 20 140 149 136 22 27 20 224 105 21 325 82 22 164 29 33 93 20 26 29 20
internal_value=0.00359402 -1.16007 1.93351 -1.35098 1.37728 2.39164 -1.16246 -1.72693 2.83494 1.5799 -0.0809985 -1.67158 2.12784 0.585685 -1.26542 1.29098 0.0402171 1.72664 -0.418546 -0.0477784 -0.935214 0.145556 0.201797 -0.12062 0.45806
internal_weight=2162 1349 813 1146 369 444 766 380 162 293 203 360 282 76 524 102 150 191 53 82 242 68 46 49 55
internal_count=2162 1349 813 1146 369 444 766 380 162 293 203 360 282 76 524 102 150 191 53 82 242 68 46 49 55
is_linear=0
shrinkage=0.05


Tree=42
num_leaves=26
num_cat=0
split_feature=26 26 26 26 26 26 26 26 26 26 26 26 26 41 29 45 26 12 26 26 67 26 10 43 10
split_gain=1.75902e+06 112253 69045.2 29425.1 20155.9 13163.4 7536.69 4197.44 3141.11 2902.35 2307.76 1733.57 1468.92 957.158 703.033 666.617 559.802 456.87 331.641 259.902 158.032 54.9911 34.8696 15.2744 11.798
threshold=1557.5340000000003 1401.8680000000002 1814.2590000000002 1272.6300000000003 1712.6190000000004 1944.3120000000001 1200.6500000000003 1320.2250000000001 1627.6740000000002 1487.8515000000004 1770.9620000000002 1876.5940000000003 1157.4700000000003 1233.7500000000002 1712.6190000000004 1.9814999699592593 1517.9885000000002 38.830466794528313 1346.1850000000002 1287.4250000000002 0.99998952346300818 1462.0515000000003 8.9907995882452738 16.967499732971195 0.58682928690865499
decision_type=2 2 2 2 2 2 2 2 2 2 2 2 2 2 2 2 2 2 2 2 2 2 2 2 2
left_child=1 3 4 6 8 11 12 19 17 15 -6 -4 -1 -8 -10 21 20 -2 -9 -5 -11 -3 24 -23 -22
right_child=2 9 5 7 10 -7 13 18 14 16 -12 -13 -14 -15 -16 -17 -18 -19 -20 -21 22 23 -24 -25 -26
leaf_value=-2.4786358024960475 0.75579534348987398 -0.20368503025986937 2.0607250913855149 -1.2277477375475945 1.4550175167492458 3.1554057720729283 -1.5732733626895481 -0.9057012610121089 1.3194538838068643 -0.058591117376372931 1.7765405924236355 2.4182432530377365 -1.8092587289465483 -1.364296365839536 0.8840537019209429 -0.42129818484187126 0.29488347771920659 0.41897201487300634 -0.70470182105302814 -1.0853945779800414 0.091768961022184653 -0.064003478667106137 0.043228752080883295 -0.13066172876141288 0.15754036411465636
leaf_weight=20 20 21 145 166 139 55 179 181 29 20 198 147 82 243 32 31 37 32 49 233 21 21 20 21 20
leaf_count=20 20 21 145 166 139 55 179 181 29 20 198 147 82 243 32 31 37 32 49 233 21 21 20 21 20
internal_value=0.00357443 -1.08599 1.86867 -1.28026 1.45391 2.4008 -1.55869 -1.0462 0.863773 -0.0283334 1.64864 2.24836 -1.96335 -1.45646 1.10907 -0.234318 0.136304 0.56043 -0.866137 -1.14755 0.0610934 -0.137089 0.100727 -0.0997124 0.126959
internal_weight=2162 1365 797 1153 450 347 524 629 113 212 337 292 102 422 61 94 118 52 230 399 81 63 61 42 41
internal_count=2162 1365 797 1153 450 347 524 629 113 212 337 292 102 422 61 94 118 52 230 399 81 63 61 42 41
is_linear=0
shrinkage=0.05


Tree=43
num_leaves=28
num_cat=0
split_feature=26 26 26 41 27 26 26 26 26 26 26 26 26 12 26 26 74 26 34 67 26 75 68 71 4 26 39
split_gain=1.58915e+06 86975.3 70547.3 25092.5 22727.7 13735.6 6109.42 4310.23 4245.89 3023.32 1869.86 1701.88 865.788 793.862 639.341 596.041 558.961 276.798 252.561 159.333 146.771 111.889 60.1955 41.4783 40.7497 23.6837 11.5263
threshold=1530.8965000000001 1353.0500000000004 1807.7200000000003 1244.5000000000002 1682.5675000000003 1934.1050000000002 1292.0500000000002 1446.0680000000002 1157.4700000000003 1756.3320000000001 1866.2060000000004 1613.2975000000004 1321.1600000000001 54.190848201884513 1487.8515000000004 1202.2600000000002 0.72968121300912425 1401.8680000000002 -0.0046041529469041985 0.99960610043036457 1276.3100000000002 16.054998256138386 0.0091207417816078686 41.124176990355807 97.556000000000026 1337.7900000000002 53.55999946594239
decision_type=2 2 2 2 2 2 2 2 2 2 2 2 2 2 2 2 2 2 2 2 2 2 2 2 2 2 2
left_child=1 3 4 8 11 10 20 17 -1 16 -4 21 -8 -7 23 -10 18 -3 -6 -16 -5 -2 24 -9 -21 -14 -23
right_child=2 7 5 6 9 13 12 14 15 -11 -12 -13 25 -15 19 -17 -18 -19 -20 22 -22 26 -24 -25 -26 -27 -28
leaf_value=-2.3606054542178199 0.55414288852525795 -0.63379738535285002 1.9048016778922374 -1.267301622138304 0.91146381096406415 2.6172527722959167 -1.0128265188657319 -0.062755777046761732 -1.7092759331412939 1.6269085922428204 2.2439134150625062 0.89544655638436488 -0.87863795753597307 3.4398763166155137 -0.031017343501249951 -1.4646874977355679 1.5762806881391085 -0.38189672946929931 1.2536669993400575 0.20305577908953035 -1.1315163266176433 0.42811384930497126 0.040594868596111028 -0.15512968906129784 0.10642245539360579 -0.74880326962471022 0.30131664090213328
leaf_weight=20 22 24 161 237 21 53 194 21 91 203 150 35 128 20 23 218 25 35 87 20 172 20 20 38 35 69 20
leaf_count=20 22 24 161 237 21 53 194 21 91 203 150 35 128 20 23 218 25 35 87 20 172 20 20 38 35 69 20
internal_value=0.00346042 -1.05282 1.74154 -1.22855 1.29858 2.23635 -1.07447 -0.132836 -1.5988 1.49336 2.07504 0.615453 -0.926714 2.88614 0.00485931 -1.54202 1.27887 -0.493304 1.19615 0.0829137 -1.21311 0.445608 0.117867 -0.123928 0.14465 -0.8372 0.373733
internal_weight=2162 1345 817 1129 433 384 800 216 329 336 311 97 391 73 157 309 133 59 108 98 409 62 75 59 55 197 40
internal_count=2162 1345 817 1129 433 384 800 216 329 336 311 97 391 73 157 309 133 59 108 98 409 62 75 59 55 197 40
is_linear=0
shrinkage=0.05


Tree=44
num_leaves=24
num_cat=0
split_feature=26 41 26 26 26 88 26 26 26 26 26 41 0 2 26 41 26 0 26 68 69 27 59
split_gain=1.43585e+06 78566.1 63855.3 22948.8 19021.8 14132.3 5749.66 3892.03 3829.34 3509.39 1984.59 1459.97 859.389 826.905 580.168 491.213 388.997 203.378 149.041 122.268 75.2351 63.0761 58.1766
threshold=1530.8965000000001 1355.7000122070315 1780.4800000000002 1243.0800000000002 1898.2650000000001 1583.1500244140627 1292.0500000000002 1972.9250000000004 1157.4700000000003 1446.0680000000002 1823.3650000000002 1726.6500244140627 1324.9150000000002 98.971500000000006 1490.1075000000003 1211.1499633789065 1698.6760000000002 1401.8680000000002 1276.3100000000002 0.0091207417816078686 0.0049642162246607358 1475.7340000000002 40.100036621093757
decision_type=2 2 2 2 2 2 2 2 2 2 2 2 2 2 2 2 2 2 2 2 2 2 2
left_child=1 3 5 8 10 13 18 -6 -1 17 -4 16 -8 20 21 -10 -7 -3 -5 22 -2 -11 -16
right_child=2 9 4 6 7 11 12 -9 15 14 -12 -13 -14 -15 19 -17 -18 -19 -20 -21 -22 -23 -24
leaf_value=-2.248195758092971 0.44092377520524545 -0.58974630973555831 1.6411986627425739 -1.2053537035379254 2.3425790078510609 0.88538339828833557 -0.94748908355388228 3.2813698505219961 -1.5824434751622816 -0.14773636373422613 1.9411611013897394 1.3832999768353149 -0.77278253867302427 0.73730021844307581 0.08480060444399716 -1.3701733286987396 1.203253679699368 -0.35928118343012677 -1.0752675311138176 9.2949553810316935e-05 0.28859390225509801 -0.047675309767325723 0.18881035657754791
leaf_weight=20 25 21 186 243 128 38 234 20 135 38 176 148 161 23 39 168 44 34 172 28 29 29 23
leaf_count=20 25 21 186 243 128 38 234 20 135 38 176 148 161 23 39 168 44 34 172 28 29 29 23
internal_value=0.00343234 -1.0006 1.65555 -1.16578 1.99923 1.07997 -1.02095 2.49065 -1.52467 -0.116503 1.792 1.27618 -0.878423 0.484962 0.00464678 -1.46966 1.06845 -0.456326 -1.15416 0.0872106 0.365942 -0.105838 0.125849
internal_weight=2162 1345 817 1133 510 307 810 148 323 212 362 230 395 77 157 303 82 55 415 90 54 67 62
internal_count=2162 1345 817 1133 510 307 810 148 323 212 362 230 395 77 157 303 82 55 415 90 54 67 62
is_linear=0
shrinkage=0.05


Tree=45
num_leaves=28
num_cat=0
split_feature=26 26 26 26 41 26 26 26 26 26 26 26 42 41 34 26 47 17 26 12 26 26 34 70 71 55 29
split_gain=1.29713e+06 82679.4 51101.7 21816.1 14187.9 10823.4 5264.42 3674.51 2512.65 2147.07 1691.67 1253.35 825.687 652.357 582.377 530.307 505.824 443.308 430.979 362.689 351.528 315.619 186.638 136.674 43.4948 38.3169 24.3655
threshold=1557.5340000000003 1401.8680000000002 1811.0500000000002 1265.9750000000001 1720.350036621094 1944.3120000000001 1196.6350000000002 1318.1250000000002 1627.6740000000002 1487.8515000000004 1876.5940000000003 1770.9620000000002 110.34500122070314 1233.7500000000002 0.0063595217500835508 1695.3350000000003 1.9950000000000003 1948.4330575866954 1517.9885000000002 38.830466794528313 1287.0800000000002 1345.5500000000002 -0.0074076771971855991 0.016218386699729515 41.124176990355807 0.00044911261233915317 1530.8965000000001
decision_type=2 2 2 2 2 2 2 2 2 2 2 2 2 2 2 2 2 2 2 2 2 2 2 2 2 2 2
left_child=1 3 4 6 8 10 12 20 19 16 -4 22 -1 -8 15 -10 24 -7 23 -2 -5 -9 -6 25 -3 -11 -26
right_child=2 9 5 7 11 17 13 21 14 18 -12 -13 -14 -15 -16 -17 -18 -19 -20 -21 -22 -23 -24 -25 26 -27 -28
